66 100
. -0.00052751845 0.00024088087 0.0051010614 0.0090032425 -0.009301167 -0.0071488703 0.006473747 0.009016071 -0.0050112256 -0.0038134104 0.007383496 -0.0015391443 -0.0045211115 0.0065707485 -0.0048344075 -0.0018267551 0.0028808983 0.0009792438 -0.008288251 -0.0094654625 0.007345737 0.0050771674 0.0067834016 0.0007779382 0.0063506 -0.003409222 -0.0009633391 0.0057853335 -0.007505448 -0.003927941 -0.0075159944 -0.00091467897 0.009543814 -0.0073628738 -0.002323282 -0.0019048415 0.00808709 -0.005956026 7.686122e-06 -0.00474335 -0.0095946705 0.0050010355 -0.008746247 -0.004403624 1.4042648e-06 -0.000309849 -0.0076541486 0.009588333 0.0049832636 0.009245285 -0.0081358785 0.0044877366 -0.0041697333 0.0008040371 0.008496665 -0.0044669653 0.0045261867 -0.00677665 -0.0035280685 0.009389723 -0.0015804414 0.00032996698 -0.0041157375 -0.00766597 -0.0015171842 0.0024900173 -0.00090091943 0.0055742864 -0.0027783993 0.0022704364 0.0054611927 0.008344472 -0.0014161691 -0.009187775 0.004381515 0.00054781843 0.0074219676 -0.00079395773 -0.0026736732 -0.008718615 -0.00089581223 0.0028331701 0.005375366 0.0070932778 -0.0056981263 0.0018500739 0.0061464305 -0.0047775097 -0.0031045154 0.0067914096 0.0016482682 0.00018715937 0.0034819234 0.00020444157 0.009659492 0.005074566 -0.0089053055 -0.007057557 0.00089365913 0.006388739
learning -0.00860781 0.0036713649 0.005191926 0.005726819 0.007469445 -0.006188896 0.0011122815 0.00607133 -0.0028375862 -0.006197559 -0.000406971 -0.008379172 -0.00559936 0.00711733 0.003367222 0.007210663 0.006797443 0.0075251376 -0.0037861327 -0.0005816111 0.0023659868 -0.00451997 0.008402895 -0.009859302 0.0067632273 0.0029135074 -0.004945565 0.004404717 -0.0017343031 0.0067204023 0.009963884 -0.004355811 -0.0005837949 -0.005722324 0.00386271 0.0028063536 0.0068919957 0.0060904785 0.009515095 0.00927512 0.007899669 -0.0070012775 -0.009147274 -0.0003439937 -0.0030826072 0.007880563 0.005933647 -0.0015554834 0.0015094788 0.0017992628 0.007834524 -0.009506681 -0.00021258224 0.0034570124 -0.0009434618 0.008377432 0.009024917 0.0065375674 -0.00069989194 0.007710837 -0.00852939 0.0032031606 -0.004630173 -0.005072922 0.0035855463 0.0053890073 0.007766275 -0.005741492 0.0074066687 0.0066387267 -0.0037185273 -0.008740269 0.005457854 0.0065181255 -0.0007729698 -0.0067195618 -0.007089567 -0.0024823237 0.005133271 -0.003646854 -0.009398234 0.003832142 0.0048617073 -0.0064075533 0.0012092289 -0.0020742172 5.7462716e-05 -0.009875757 0.0026965593 -0.0047503742 0.0011096576 -0.0015765917 0.0021926032 -0.0078901285 -0.002702923 0.0026716008 0.005347641 -0.002394611 -0.009519276 0.0045015127
data 0.00011276727 0.0030858358 -0.006811261 -0.001383369 0.0076644532 0.007321195 -0.003661807 0.002671157 -0.008330515 0.0061754533 -0.004643556 -0.0031676074 0.009310787 0.0008983748 0.0075061936 -0.0060879877 0.0051578428 0.0099299615 -0.008462682 -0.0051539997 -0.0070445295 -0.0048664757 -0.003767887 -0.008550123 0.007952541 -0.0048559173 0.008395878 0.0052645574 -0.006541191 0.003963266 0.0054701413 -0.0074179005 -0.0074002184 -0.0025072247 -0.008616792 -0.0015561001 -0.00041073048 0.0032958277 0.0014197221 -0.0008903027 -0.0055963313 0.0017130036 -0.0008878465 0.006809387 0.0039997236 0.004512769 0.0014327933 -0.00272305 -0.004352008 -0.0010237396 0.0014554355 -0.0026473023 -0.0070817536 -0.007817941 -0.009125612 -0.0059318575 -0.0018355356 -0.0043282197 -0.0064460924 -0.003722794 0.0042981794 -0.0037412564 0.008385088 0.0015458338 -0.0072527393 0.009463952 0.0076203262 0.005521896 -0.0068696924 0.0058380957 0.0039971736 0.005184139 0.004284104 0.001951398 -0.0031534245 0.008349387 0.009606529 0.0038153662 -0.0028458221 2.4637739e-05 0.0011867584 -0.008454851 -0.008255323 -0.00020246538 0.0012474457 -0.0057502566 -0.0046956944 -0.0073410426 0.008338833 0.00012918249 -0.0044832574 0.005697187 0.0091826115 -0.004118266 0.007986833 0.0053891246 0.005881351 0.00051306584 0.008202309 -0.0070265075
is -0.008224429 0.009303791 -0.00020640346 -0.0019659519 0.0046042623 -0.00412913 0.0027448074 0.006984455 0.0060654543 -0.0075531667 0.009387491 0.0046656947 0.003985278 -0.0062101427 0.008493768 -0.0021572104 0.008826763 -0.0053656907 -0.008125658 0.0068146423 0.0017012721 -0.002203364 0.009528244 0.00951391 -0.009778227 0.0024944884 0.006140455 0.0038951817 0.0020410034 0.00043999832 0.0006779592 -0.0038223653 -0.0071321093 -0.0021301894 0.0039337617 0.00884805 0.009270322 -0.0059936885 -0.009432505 0.009771727 0.0034325419 0.0051606554 0.0062971744 -0.0028085373 0.007349527 0.002828155 0.0028670593 -0.0023919228 -0.00312672 -0.0023614098 0.004293189 6.7216904e-05 -0.00960948 -0.0096769845 -0.006142969 -0.00012267719 0.0020068598 0.009434272 0.0055995067 -0.0043005426 0.0002768262 0.0049718157 0.0077102096 -0.0011229308 0.004310541 -0.0057914015 -0.00080851786 0.008138569 -0.00238414 -0.009645707 0.0057887677 -0.003939002 -0.0011899081 0.009995961 -0.00224213 -0.004762442 -0.005345884 0.0070092822 -0.0057329484 0.0021352842 -0.0052911327 0.006127505 0.004337169 0.0026402012 -0.0014817598 -0.002742522 0.009029665 0.0052272584 -0.0021518422 -0.009476002 -0.0074017253 -0.0010713516 -0.0008022874 -0.0025734697 0.0097085405 -0.00044741915 0.005868219 -0.007469336 -0.0025124052 -0.0055482117
machine -0.0071139517 0.0012559484 -0.007158588 -0.0022553892 0.0037193946 0.005776818 0.001209399 0.0021683357 -0.004107213 0.0071494924 -0.006290732 0.004637621 -0.008205676 0.002064036 -0.0049436665 -0.0042622164 -0.0030971593 0.0056470246 0.005802446 -0.005010597 0.0007966857 -0.008492187 0.007827556 0.0092585655 -0.0027611088 0.0008096945 0.0007185584 0.0055157086 -0.008592339 0.0006010356 0.0068644746 0.0022417433 0.001131002 -0.009393514 0.008502397 -0.006238109 -0.0029823254 0.0034498293 -0.00082235486 0.0014169554 0.0017940367 -0.0068485946 -0.009702477 0.009049245 0.0062477663 -0.0069460254 0.0033920375 0.00017281603 0.004758087 -0.0071129594 0.004068643 0.0043592053 0.009921017 -0.004510358 -0.0013819468 -0.007320773 -0.009682146 -0.009072498 -0.0010036053 -0.0065057618 0.0048487447 -0.006157043 0.002529298 0.00078082597 -0.0033872908 -0.0009356602 0.00997227 0.009204195 -0.0045165345 0.009088523 -0.0056493054 0.005923214 -0.0030449657 0.0034467117 0.003041774 0.006883432 -0.0023813583 0.008811435 0.007562196 -0.009519384 -0.008074271 -0.007619109 0.0028858364 -0.0027365873 -0.0069227954 -0.008122871 0.008391378 0.002026005 -0.009311711 -0.0047986894 0.0031744745 -0.00472246 0.005276772 -0.0042361016 0.002692844 -0.008031907 0.0062088775 0.0048220675 0.0007674298 0.0030069286
a -0.008702022 0.0021344405 -0.00086310843 -0.009327467 -0.00942125 -0.0014477831 0.00444683 0.0037634694 -0.0064991177 -0.006933299 -0.0049991156 -0.002293693 -0.007250316 -0.009586722 -0.002715889 -0.008372268 -0.006040953 -0.0056777955 -0.0023353666 -0.0017408466 -0.008939264 -0.0007419276 0.008173959 0.007680216 -0.0072145443 -0.0036751858 0.003080974 -0.009553888 0.0014954044 0.0065419525 0.00573962 -0.008760212 -0.0044998946 -0.008194583 5.7908735e-05 0.009289245 0.005962204 0.005050084 0.0050344747 -0.0032527216 0.009565664 -0.0073816846 -0.007257326 -0.002249411 -0.0007404671 -0.003249368 -0.0005923269 0.0074574524 -0.0006939103 -0.0016077535 0.0027786847 -0.008364255 0.007844992 0.008519016 -0.009588743 0.002442693 0.0099217305 -0.007663227 -0.0069515943 -0.007726249 0.008398841 -0.00067672855 0.009158954 -0.008127081 0.0037319227 0.002674065 0.0007415469 0.0023858096 -0.0075065787 -0.009342409 0.0023507713 0.0061423457 0.008040567 0.0057516135 -0.00074777333 0.00828734 -0.009345779 0.0034359451 0.00024793987 0.0038684227 0.0073416876 -0.006720894 0.0055477074 -0.009478197 -0.0007939512 -0.008683229 -0.005039518 0.009304813 -0.0018491982 0.0029111751 0.009114522 0.008931065 -0.008208435 -0.0030195538 0.00992945 0.005123568 -0.001588763 -0.008689481 0.0029588053 -0.0066851284
science 0.008148703 -0.004441835 -0.0010692402 0.0010064447 -0.00018854962 0.0011329539 0.0061253374 5.251104e-06 -0.00325086 -0.001533713 0.0058920467 0.001507705 -0.0007106666 0.009347058 -0.0049129883 -0.0008491514 0.009184938 0.0067521464 0.0015025927 -0.008898198 0.0011681953 -0.0022898775 0.009373323 0.001214266 0.0014797121 0.0024045324 -0.0018530121 -0.0049907253 0.00023987095 -0.0020070947 0.0066060997 0.008947558 -0.0006757144 0.0029401395 -0.0061026174 0.0017129387 -0.0069225663 -0.008699476 -0.005922708 -0.008959156 0.00728604 -0.0057824883 0.008287047 -0.007237834 0.0034393463 0.009662956 -0.0077886777 -0.009968136 -0.0043222867 -0.0026791815 -0.00026213948 -0.008829017 -0.008629224 0.0027777296 -0.008205083 -0.009075037 -0.0023447261 -0.008632118 -0.0070543825 -0.008408687 -0.00029683815 -0.0045660418 0.006634107 0.0015431179 -0.0033420422 0.006126766 -0.0060100136 -0.004632444 -0.0072315442 -0.0043329927 -0.0018109455 0.0064845914 -0.0027515797 0.00493008 0.0069140065 -0.007463542 0.004561346 0.0061470564 -0.0029643313 0.0066396585 0.0060950937 -0.006439196 -0.0067752325 0.0025561578 -0.0016207371 -0.0060744938 0.009539849 -0.005113096 -0.0065497565 -0.00012606409 -0.0026868526 0.0004362999 -0.003531043 -0.0004253986 -0.00069228647 0.000819532 0.008193832 -0.005735867 -0.0016639191 0.0055742874
processing 0.008164525 -0.0044430173 0.0089925025 0.008254705 -0.0044327457 0.00029442413 0.004274573 -0.0039153206 -0.0055565583 -0.006524951 -0.000663681 -0.00029441874 0.0044578672 -0.002478285 -0.00016925487 0.0024599503 0.0048679225 -3.800234e-05 -0.00634222 -0.009262862 2.0549181e-05 0.0066672983 0.0014711604 -0.008973391 -0.007947024 0.0065565095 -0.0037915213 0.0062623257 -0.0066786734 0.008482084 -0.0065198513 0.003283471 -0.0010564141 -0.0067885825 -0.0032862162 -0.0011605347 -0.0054719127 -0.0012198887 -0.007564799 0.0026464285 0.009074863 -0.0023818428 -0.00097504753 0.0035137709 0.008672165 -0.0059298053 -0.0068851463 -0.0029391567 0.009149338 0.0008654106 -0.008671926 -0.0014468381 0.009479923 -0.007552685 -0.0053584925 0.009316887 -0.008968508 0.0038301323 0.00066817383 0.0066614645 0.008310555 -0.0028459053 -0.003989563 0.008900961 0.0020910916 0.006253154 -0.009443742 0.009600954 -0.0013624784 -0.006053908 0.0029917744 -0.00045790116 0.004717314 -0.0022845902 -0.0041358224 0.0022724238 0.008352664 -0.004993579 0.0026635856 -0.007993788 -0.006779084 -0.00046288298 -0.008771335 0.0028008258 0.0016028961 -0.0023161846 0.0050101834 0.009755551 0.008454442 -0.0018780382 0.0020617526 -0.0040066433 -0.00823826 0.0062772227 -0.0019412793 -0.0006618845 -0.0017664435 -0.0045258654 0.004060559 -0.0042757876
language -0.009576372 0.008945988 0.0041671656 0.0092380615 0.0066457456 0.0029257454 0.009806981 -0.0044270707 -0.0068047857 0.004229132 0.0037285336 -0.005663476 0.009706999 -0.0035602837 0.009547835 0.00083656464 -0.0063351616 -0.0019790845 -0.0073804483 -0.002981736 0.0010393892 0.009485459 0.009356101 -0.0066013294 0.003474032 0.0022758236 -0.0024944434 -0.009229435 0.0010277622 -0.008163909 0.0063222437 -0.0058011706 0.0055331253 0.009835683 -0.00016168226 0.004530162 -0.0018091905 0.007363348 0.0039411075 -0.009013751 -0.0023999717 0.0036285482 -9.957945e-05 -0.0012020059 -0.0010581961 -0.0016739594 0.0006033905 0.0041638054 -0.0042526373 -0.0038329537 -5.322771e-05 0.00026833423 -0.00017080351 -0.0047863163 0.0043127015 -0.0021701471 0.0021032111 0.0006670575 0.0059663933 -0.0068407273 -0.0068166023 -0.004477974 0.00943671 -0.0015913023 -0.009428418 -0.0005449149 -0.0044499426 0.005997639 -0.009585547 0.0028556099 -0.009255551 0.0012475868 0.00599877 0.0073959497 -0.0076249973 -0.0060587395 -0.0068399226 -0.007919809 -0.009499871 -0.0021256143 -0.00083409686 -0.0072541866 0.0067873453 0.0011207641 0.005829352 0.0014726156 0.00078785786 -0.0073666936 -0.0021746806 0.0043219477 -0.0050861468 0.0011307269 0.0028830548 -0.0015375633 0.009932613 0.008348285 0.002415447 0.0071209944 0.005891355 -0.005582098
, -0.005152259 -0.0066593327 -0.007777243 0.008311839 -0.0019826065 -0.006859286 -0.0041496106 0.0051500476 -0.0028732019 -0.0037555136 0.0016227695 -0.0027792274 -0.0015808296 0.0010800727 -0.0029734082 0.00851114 0.003913638 -0.009962031 0.00625453 -0.006760808 0.0007767366 0.004406735 -0.005097752 -0.002113172 0.008091646 -0.004247066 -0.007638244 0.0092638265 -0.0021546183 -0.004718976 0.008574011 0.0042824936 0.004327848 0.009275407 -0.008451239 0.0052619367 0.0020456978 0.0041880733 0.0016878614 0.0044656475 0.004486031 0.0061011203 -0.0031992886 -0.0045709047 -0.00041685792 0.0025365062 -0.0032684314 0.0060535115 0.0041587595 0.007766859 0.002569797 0.008119687 -0.0013947277 0.008067263 0.0037141854 -0.008049739 -0.0039323634 -0.0024722756 0.004893902 -0.00087575347 -0.0028279843 0.007833073 0.009327004 -0.0016125122 -0.0051575084 -0.0046985913 -0.004844092 -0.009592728 0.0013575825 -0.004219645 0.0025233938 0.005616774 -0.004059023 -0.009592942 0.0015485953 -0.0066997185 0.0024979066 -0.0037771885 0.0070734764 0.00064507656 0.0035508303 -0.0027429895 -0.001719501 0.007659787 0.0014058138 -0.0058570136 -0.007825354 0.001233934 0.0064587253 0.005559112 -0.008974014 0.008593326 0.004049493 0.007467133 0.009749069 -0.007289639 -0.00903678 0.0058404123 0.00939204 0.0035040574
human 0.0070828567 -0.0015611588 0.007952761 -0.009488507 -0.008030554 -0.006655644 -0.00399596 0.005005026 -0.0038119107 -0.008337155 0.008417964 -0.0037585357 0.008614208 -0.004895723 0.003925819 0.004911077 0.0023952269 -0.0028327655 0.0028531973 -0.0082661975 -0.0027531497 -0.0025843794 0.0072595454 -0.0034594669 -0.0066067455 0.004343044 -0.00047574812 -0.0035848354 0.006883854 0.0038679352 -0.0039037906 0.00077917735 0.009148844 0.007741516 0.006367346 0.0046806284 0.0023952427 -0.0018577868 -0.0063943015 -0.0002954013 -0.001559013 -0.00057928223 -0.006259222 0.0074347947 -0.0065754782 -0.007239374 -0.0027607558 -0.0015239073 -0.007634429 0.0006974473 -0.0053134137 -0.0012714849 -0.0073736445 0.0019500947 0.0032720072 -2.950697e-05 -0.005442957 -0.0017223122 0.0070898766 0.003732329 -0.008882126 -0.0034145047 0.0023637866 0.0021432517 -0.009459415 0.004576819 -0.008659344 -0.007368186 0.0034589595 -0.0034639346 0.0035611272 0.008902923 -0.0035595153 0.009327719 0.0017227348 0.009847782 0.0057054153 -0.00914494 -0.003341648 0.006540074 0.0055822222 0.008707927 0.00691768 0.008050023 -0.00982665 0.0042935954 -0.005005553 0.0035230804 0.0060616895 0.00439216 0.0075239786 0.0015006233 -0.0012684861 0.0057740537 -0.005623899 4.0723346e-05 0.009458699 -0.0054769893 0.0038104283 -0.008113092
networks 0.009775116 0.008174494 0.0012785527 0.0050889975 0.0014090029 -0.006468039 -0.0014118907 0.0064719706 -0.0046173027 -0.004014453 0.0049235923 0.002710774 -0.0018353428 -0.0028656106 0.006024623 -0.0057297265 -0.0032268187 -0.0064922473 -0.004240716 -0.008594409 -0.0044437945 -0.008513494 0.0014202289 -0.008613259 -0.009920578 -0.008208759 -0.0067823236 0.0066804816 0.0037915797 0.00036035763 -0.0029545387 -0.0074168798 0.00054022437 0.00047282237 0.00020342425 0.000877526 0.000789128 -7.498154e-05 -0.008028369 -0.0058709616 -0.008378723 -0.0013170431 0.0018359673 0.0074212183 -0.0019394256 -0.0023342958 0.009485822 6.565965e-05 -0.0023985924 0.008609858 0.002697993 -0.005341123 0.0065722405 0.004491991 -0.007059759 -0.00032697746 0.0008381661 0.005749048 -0.0017035524 -0.0028159467 0.0017568779 0.0008483899 0.0012059115 -0.0026214202 -0.005994494 0.007336893 0.007580111 0.008322657 -0.008618831 0.0026436467 -0.0035558739 0.009619199 0.0029246048 0.0046604914 0.0023990853 0.0065955054 -0.0057480196 0.00791421 -0.0024277694 -0.0045409966 -0.0020857234 0.009735374 -0.0068752407 -0.0021671338 0.0070039486 -6.481831e-05 -0.0062572802 -0.0063786884 0.008936996 0.006421732 0.0047898847 -0.00326402 -0.009260645 0.003776937 0.007182704 -0.005625737 -0.007867148 -0.0029814343 -0.0049354956 -0.0023178775
neural -0.001930239 -0.0052609453 0.009456088 -0.009298099 0.004504419 0.0053839223 -0.0014044564 0.009041451 0.0098848725 -0.005511919 -0.006021397 -0.0067460677 -0.007899917 -0.0030499522 -0.0055705276 -0.008353351 0.0007782238 0.0029809256 0.006405091 -0.0026394103 -0.0044480176 0.0012506153 0.0004045595 0.008112987 0.00017517457 0.007231975 -0.008285614 0.00844486 -0.0018716472 0.008716523 -0.0076224827 0.0017958402 0.0010551144 2.0788457e-05 -0.00509029 -0.009229466 -0.007257165 -0.007959584 0.0018956086 0.00047975057 -0.001801475 0.0071029244 -0.0024734323 -0.0013405746 -0.008880712 -0.009940834 0.008953048 -0.005764895 -0.0063736234 0.00520979 0.0066836383 -0.0068447287 0.00095205347 -0.006020347 0.001632777 -0.0042883055 -0.003435309 0.002190119 0.0086699 0.006735224 -0.009670673 -0.0056050224 0.00789618 0.0019998166 -0.004245579 0.0006143809 0.009530479 -0.0010618658 -0.009454659 0.0016027264 0.006234944 0.0062833903 0.0041143633 -0.0056449175 -0.0003667529 -6.27207e-05 0.0045621037 -0.008030692 -0.008028214 0.00026961902 -0.008625255 0.0058181263 -0.00043261726 0.00998694 -0.0053382446 -0.00048937055 0.0077896123 -0.0040562926 -0.005011813 0.0015913257 0.0026628233 -0.002568026 0.0064468137 -0.007661975 0.0034195746 0.0005013744 0.0087428065 0.0059824297 0.0068197763 0.007807647
to -0.009498273 0.009564206 -0.0077702203 -0.002647478 -0.004905122 -0.004972194 -0.008021236 -0.007770529 -0.004548806 -0.0012868422 -0.0051014344 0.0061363764 -0.009517417 -0.0053015915 0.009442652 0.006987512 0.007678287 0.004234265 0.0005063372 -0.0059850095 0.006019863 0.0026336056 0.007702595 0.0063934526 0.007941337 0.00865743 -0.009900192 -0.006754057 0.0013402578 0.00644221 0.007372045 0.0055146106 0.0076661315 -0.0051356726 0.006582676 -0.0041052722 -0.009053845 0.00913842 0.0013283894 -0.0027598806 -0.002476597 -0.004221564 0.0048181834 0.0044020186 -0.002645728 -0.007344736 -0.0035697566 -0.00033965163 0.00609886 -0.0028353445 -0.000114885464 0.0008758611 -0.007100411 0.002060984 -0.0014360326 0.0028011901 0.004847934 -0.0013536181 -0.002775934 0.0077388505 0.005047627 0.006713346 0.004520531 0.00867512 0.0074726325 -0.0010742078 0.008745355 0.004612814 0.005429171 -0.0013803219 -0.0020390505 -0.004421875 -0.008502232 0.003038989 0.008890854 0.008917494 -0.0019419037 0.0060932366 0.003775993 -0.0042950925 0.0020342497 -0.005439944 0.008200206 0.00544142 0.0031868313 0.004102015 0.008667273 0.007274749 -0.0008344161 -0.00707503 0.008390267 0.007234698 0.0017310579 -0.0013470771 -0.0058816555 -0.004528522 0.008644975 -0.0031330448 -0.0063424413 0.009872627
by 0.007698527 0.009133615 0.0011484643 -0.008327912 0.008432339 -0.0037422623 0.005755159 0.00445021 0.009698334 -0.009353748 0.009222413 -0.009296463 -0.0069074905 -0.009088999 -0.0055171056 0.0073548555 0.009166455 -0.003337633 0.0037175508 -0.0036452282 0.007890734 0.0058844653 2.1777047e-05 -0.0036365439 -0.0072500734 0.004776871 0.0014348626 -0.0025886886 0.007850823 -0.00404526 -0.00915908 -0.0022487117 0.00012860975 -0.0066757975 -0.0054758377 -0.008480081 0.009245168 0.007386409 -0.0003371434 0.0073819743 0.007969893 -0.0007985196 0.0066257585 0.0037682252 0.005121382 0.0072403 -0.00475136 -0.0022094897 0.0008824501 0.004231835 0.0033440036 0.0050962586 0.004559848 -0.0084687 -0.003182803 -0.007235746 0.009699906 0.005008135 0.00019117999 0.0041114194 -0.007662053 -0.0062881475 0.0030950883 0.006556117 0.003967307 0.006044682 -0.0019917185 -0.0032980724 0.00013903214 -0.0031945189 -0.0055277925 -0.0077942307 0.0065822727 -0.0010835795 -0.001881227 -0.007819266 0.009339727 0.00088208786 0.0017377385 0.0025060864 -0.007437363 0.0016540944 0.0029486571 -0.008523092 0.004963125 0.0024344549 0.007560664 0.005078294 -0.003017647 -0.0071583465 0.007119525 0.0018987092 0.005196695 0.006382839 0.0019560168 -0.0061140643 6.0640455e-06 0.008289236 -0.006106509 0.009433355
python -0.007190492 0.004242091 0.0021654572 0.007433338 -0.004886283 -0.004601948 -0.0060812547 0.003335922 -0.0044957763 0.008473556 -0.004288295 -0.009115777 -0.004815654 0.0064258296 -0.0063513825 -0.0052844775 -0.0073023015 0.006009031 0.0033402801 0.0028469302 -0.0031232925 0.0060422085 -0.006130639 -0.0019926531 -0.00599083 -0.001011848 -0.00203982 0.008504053 8.874627e-05 -0.008579013 -0.005436089 -0.0068699024 0.002697413 0.009430667 -0.005816444 0.008290052 0.008549482 -0.007081131 -0.008911247 0.009475043 0.008378639 -0.0046937736 -0.006710425 0.007835318 0.003795247 0.008088462 -0.0075756907 -0.009549379 0.0015963198 -0.009794811 -0.004875053 -0.0034725904 0.009610659 0.008599277 -0.002841835 0.0058316523 0.008252149 -0.002241795 0.009544239 0.007168159 0.002051617 -0.0038378616 -0.005064377 -0.003048721 0.007894465 -0.0061801574 -0.0029284314 0.00922633 0.0034149396 0.0060823024 -0.008033953 -0.00074693654 0.005568844 -0.004706044 0.0074952124 0.009299404 -0.00041463666 -0.0020596369 -0.00062771264 -0.005774193 -0.008418324 -0.0014976917 -0.0025933513 0.0044218465 -0.0068627717 0.005402422 -0.0067104804 -0.0078040455 0.008481044 0.008926075 -0.003463327 0.0034939037 -0.0057852217 -0.0087648425 -0.0054818178 0.0067610405 0.0064314995 0.009436408 0.007059419 0.006732993
an 0.0013030341 -0.009804349 0.004590491 -0.00054945075 0.00633389 0.0017720629 -0.003127363 0.0077730226 0.0015558746 4.3743046e-05 -0.0046145353 -0.008460753 -0.00777057 0.008678251 -0.008916909 0.009022779 -0.009286617 -0.0002807191 -0.0019084422 -0.008944344 0.008636437 0.006778399 0.0030271865 0.004828322 0.00011463999 0.009424146 0.007012154 -0.009855675 -0.0044324477 -0.001283022 0.0030457352 -0.004317897 0.0014607997 -0.007856774 0.0027835513 0.0047153565 0.004933252 -0.0031814035 -0.008434969 -0.009221806 -0.00072024966 -0.0073382463 -0.0068094027 0.006129639 0.0071807797 0.0021062715 -0.007902782 -0.005703051 0.008051053 0.003926005 -0.005230006 -0.0073907548 0.0007728171 0.0034589244 0.0020750696 0.0030995414 -0.0056092064 -0.009890435 -0.0070129195 0.00023398738 0.0046265274 0.004522885 0.0018839221 0.005179666 -0.00010557645 0.0041260053 -0.009124269 0.007715 0.0061286897 0.0051357397 0.0071989805 0.008445887 0.0007495958 -0.0017038112 0.00052896584 -0.00932364 0.008405296 -0.0063730343 0.008427129 -0.004235921 0.0006351602 -0.009162196 -0.009575176 -0.007825068 -0.0077283005 0.00037726702 -0.0072091217 -0.004945404 -0.005269829 -0.0042853183 0.0070266626 0.0048282556 0.008680617 0.0070860214 -0.005688425 0.0072474387 -0.00929395 -0.00258682 -0.0077602374 0.004187458
of 0.0018330568 0.007063545 0.0029620635 -0.006989626 0.0077173477 -0.0060336445 0.009023829 0.0030265588 -0.004034669 -0.004768037 -0.004415111 -0.006158384 0.009383552 -0.0026243492 0.0078099016 -0.009701411 0.002107789 -0.0012504545 0.0075428 -0.00909872 0.0074591795 -0.005113873 -0.0059849857 -0.0056673023 -0.003389717 -0.003424234 -0.0032506415 -0.0074737887 0.00073864625 -0.0005533612 -0.0016857398 0.0037592866 -0.00759752 -0.0032908805 0.0051781046 0.008572928 -0.009818429 0.007178605 0.0052837753 -0.0038967167 0.008583267 -0.009255413 0.007271342 0.005388396 0.0013388621 -0.005247735 -0.00418802 -0.0033927988 0.0016183769 0.0016114404 0.0074341795 0.009983827 0.008843314 -0.0040348247 0.00964385 -0.0006384824 0.0048985765 0.0025534097 -0.0006147955 0.0036785959 -0.0053139306 -0.0057464284 -0.00759625 0.0019449615 0.0065182233 0.0009300954 0.0012595884 0.003243364 0.008078084 -0.0076827356 0.0022443086 -0.007481026 0.003783083 0.009524052 0.007548825 0.006389016 0.008008555 0.00658787 0.006836711 0.008706202 -0.005009432 0.009208696 0.005009619 -0.0020674746 0.008497766 0.0050837616 0.00971986 0.0028542443 0.009885334 0.0012057262 0.009185624 0.0035835805 0.006567413 -0.0036253533 0.006852459 0.007270665 -0.0021279769 -0.0018462653 0.0036135723 -0.0070582763
that 0.009742362 -0.00976867 -0.0065100323 0.0027956201 0.0064414055 -0.0053667137 0.002775207 0.009141222 -0.006819687 -0.0061000134 -0.0050007226 -0.003678969 0.0018675219 0.009691732 0.0064467974 0.00038380644 0.0024876578 0.008431067 0.009130148 0.005606714 0.0059699602 -0.0076276506 -0.0038113582 -0.005675293 0.0061775143 -0.0022588868 -0.008806415 0.0076217535 0.008407721 -0.0033116804 0.009134583 -0.00073099125 -0.0036206357 -0.00040385913 0.0001999782 -0.0034828924 0.0028145958 0.005733986 0.006855343 -0.00891372 -0.0021857873 -0.005499686 0.0075309607 0.0065051806 -0.004350575 0.002314631 -0.0059582554 0.00022562461 0.0094686635 -0.0026089556 -0.0051841955 -0.0074085337 -0.0029156932 -0.0008754013 0.0035245444 0.009737433 -0.0033972613 0.0018958427 0.009682364 0.0015269959 0.0009920523 0.009792991 0.009316385 0.007729601 -0.0061788247 0.009993569 0.00585861 0.00910781 -0.0020217348 0.0033644356 0.0068414635 -0.0038959687 0.0066607036 0.0025787083 0.009327473 -0.0030500144 -0.0031205446 0.0062407223 -0.009088842 -0.007247562 -0.0065167407 -0.0007545948 -0.0023678415 0.006832437 0.009244358 -0.00092121365 0.0014504363 0.0020388362 -0.0020275682 -0.008041858 0.0074665165 -0.0043071005 0.004584069 0.009078102 0.003055275 0.0031366323 0.0040658424 -0.0027019016 0.003836254 0.00034100143
and 0.0056344853 0.005495695 0.0018336336 0.0057435464 -0.008977045 0.006546098 0.009238402 -0.0041755065 0.001608498 -0.0052642846 0.0010438409 0.0027729324 0.008143917 0.0005542915 0.0025683178 0.0012942201 0.008390446 -0.0057000476 -0.006265506 -0.0036432564 -0.002291053 0.005041205 -0.008107862 -0.002840607 -0.008200414 0.0051451516 -0.0026060622 -0.009082835 0.0040782057 0.009029884 -0.0030477275 -0.0058260066 0.0030362122 -0.00046628516 -0.009970483 0.008439834 -0.0073489198 -0.0049309344 -0.0026692515 -0.00545861 0.0017277228 0.009694056 0.0045707813 0.008093472 -0.0004492643 0.0006136497 -0.0026624298 -0.008786841 0.0034460812 0.0020957827 -0.0093996925 -0.0049844394 -0.009731954 -0.005721922 0.004055548 0.00865372 0.0041123764 0.0023681666 0.00816625 -0.0011180828 -0.0013843365 -0.008745866 -0.000111998495 -0.0025479891 0.00038202986 0.007307823 -0.007052061 -0.003914443 -0.0066922996 -0.0035284949 -0.0033233126 0.0021363376 0.003358285 -0.0049540196 -0.004531577 0.001123379 0.005437085 0.0053856103 -0.002969725 -0.00426104 -0.0056360774 -0.00055042113 0.001924231 0.0015528045 0.0073552113 -0.002736751 -3.19896e-05 -0.0055088615 -0.0011751918 -0.007705874 -0.00092336204 0.0012981506 -0.008591532 0.008738405 -0.009189429 -0.009617255 -0.008518076 0.0073257927 0.0054615117 0.009248187
deep 0.0025733216 0.0008481176 -0.002539694 0.00935782 0.0027573952 0.0040939148 -0.0011815515 0.0009075719 0.0066218874 -0.0007304802 0.0033415065 -0.00067216804 0.0052503487 0.0036420554 0.0025846916 -0.0053101797 -0.004706956 0.004307477 -0.0059072007 -0.00018294677 -0.00063195766 0.0034911414 -0.008441165 0.008816744 -0.0014493138 -0.0053334446 0.00405089 -0.0019351045 -0.007763024 -0.0044953707 -0.00038750473 -0.0089477 0.00057142536 0.0024368237 -0.0032238648 0.0025729332 0.0024798964 0.009988549 0.001429597 0.0020187106 0.0027790556 -0.0020793604 -0.008697355 0.008023903 -0.0019738416 -0.009695021 -0.006552238 -0.0039471197 0.003954896 0.00504087 0.006087268 -0.0067709065 0.00068770995 -0.0027745743 -0.005208593 0.0069815475 0.003953453 -0.003106435 -0.008277401 -0.005140308 -0.00064935867 0.007811036 0.006044358 -0.00844949 -0.009565586 0.0071366914 -0.0023280585 -0.0036900712 0.0057487073 -0.005843482 0.0050942153 -0.00024381811 -0.006871726 -0.0003303678 0.0063597364 0.009292803 0.0022197815 0.005053048 -0.004975344 -0.00079654146 -0.005320367 0.001189276 -0.0017949076 -0.0036303948 -0.007013718 0.009655066 0.002977297 -0.0022806076 -0.004182027 0.00771456 -0.0064790086 0.0031211893 0.00078584737 0.008321887 0.0068390216 -0.0029080778 0.0025329492 -0.0016681862 -0.009454128 -0.0026142648
subset 0.001345994 0.0065483507 0.009995271 0.009065706 -0.008012653 0.006479088 -0.00570229 -0.00094513956 0.00047877364 0.0065527274 0.004469076 0.004600732 0.009487988 0.0003853238 -0.006030932 -0.0063347593 0.0064393813 -0.0052580275 -0.0028539894 0.0040510464 -0.0022795042 -0.006018601 -0.0023089088 0.0012082675 0.0021814215 0.006086251 -0.005240503 0.0030923407 0.007251774 0.0022100203 0.005395257 -0.0048389332 0.006154922 -0.007630907 0.0034989142 -0.00930381 -0.0026015562 -0.009083049 -0.0016041852 -0.0053715995 -0.0039378633 0.0011365811 0.0028035473 -0.0015232916 -0.008153061 -0.0059385207 0.00082069647 -0.0039655035 -0.009432211 -0.00076290156 0.0066450187 0.0059727198 -0.009932091 0.003103917 -0.005995089 -0.009191417 0.00017449317 -0.00036842577 -0.0069705294 -0.006273924 -0.0024232182 0.0070981286 -0.0075287316 0.0077142157 -0.00047839826 0.001110239 0.00948772 0.004759716 -0.0036003029 0.0037400613 0.0035189416 0.006336764 9.14839e-05 -0.004418873 0.0013248135 -0.0054331864 0.0014017213 0.0049384655 0.005143533 0.009192233 -0.0075305905 -0.0054071923 0.0064539 0.0013773764 -0.0066110324 0.0008782944 0.0027135175 -0.0025149668 -0.0049591986 0.005003483 0.009637687 -0.007367758 -0.00011191453 -0.0025709902 -0.006339805 -0.0013724276 -0.0052414085 0.009061439 -0.005789286 0.0036811635
uses -0.00023109224 0.0042284685 0.0021232578 0.009993399 0.0006299513 -0.0054809335 -0.001168697 0.0020983224 -0.003370786 -0.0078772735 -0.0055991625 -0.0067576393 0.006354099 0.003918979 0.008226594 0.006507547 -0.0061241975 0.0027003137 0.008478617 0.0015826825 0.0030773154 0.0058153714 -0.008825224 0.009126885 0.006812485 0.008516393 -0.008241882 0.0061898585 0.006636715 -0.0013472887 -0.006296119 0.0053304625 -0.006858187 -0.005354013 0.0035183472 0.00809201 0.00869473 -0.0044206856 -0.009210496 0.009606574 0.0063036038 -0.0039793747 -0.00845995 -0.0047137076 -0.0039397464 -0.0032882907 0.000816562 -0.00031709144 -0.0031148554 -0.0059898994 0.009435217 -0.004733674 -0.007269919 0.007668654 0.0025139963 0.00861623 -0.00445907 -0.006888336 0.000987552 -0.0011690736 -0.0093984995 -0.0016019682 0.0030632615 0.0065764077 0.0068518687 0.003225109 -0.004439703 -0.0018059697 -0.0039667576 0.00577088 -0.0063612033 0.0021113055 -0.0013172203 -0.005807348 -0.007233717 0.0058452073 -0.0083613265 -0.00067722175 0.0028144992 0.0077468506 -0.007324445 0.0033005339 0.009797568 -0.006959318 -0.0035368456 0.005124902 0.0052807387 0.001637425 0.0079706665 0.00082585454 0.0018890217 -0.0016016378 -0.008166959 0.003256503 0.0019912985 -0.00872594 -0.0006667456 8.376404e-05 -1.5499825e-06 0.008705112
understand -0.0025076736 -0.005902751 0.0074847015 -0.007261656 -0.008966862 -0.0017937083 -0.008366393 0.0003946193 0.0019445615 -0.0024737348 -0.006447546 -0.00032282254 -0.0010975819 0.0034969584 0.008128126 0.005853353 0.008441823 -0.008969202 0.009442968 -0.0023702516 0.008699617 0.0023822973 0.003587393 -0.0095807165 -0.009486132 0.008984205 -0.0028994416 0.0028184252 0.0064205956 -0.00029996692 0.009723367 -0.0010304163 -0.009671467 -0.007060351 -0.0010399322 -0.008671801 0.007422662 0.00361614 -0.008750718 0.008478489 0.008929318 0.0058438336 0.0069114673 -0.009569693 0.0004955687 -0.009224596 -0.0036657238 0.00025180614 -0.00028120895 0.0014668569 0.0032814075 0.0021290854 0.0053184787 0.007520383 -0.005886333 0.007956035 0.005992877 0.009785299 0.0046249325 -0.003327626 -0.003744415 -0.00062918576 -0.0016539437 0.0098762745 0.00112224 0.0040100487 0.0034179494 -0.008846677 0.006717651 0.0081942445 -0.0016656192 0.0023341645 -0.00647637 -0.0061222836 0.008219601 -0.0030466197 0.006738497 0.0015573871 -0.0019820624 0.0030580184 -0.0040248614 -0.0017845968 0.0013773596 0.0048900535 -0.0014055432 0.0006565139 -0.007925777 0.009497141 -0.00876254 0.0070702266 0.003909462 -0.00699934 -0.0052960087 -0.007938882 -0.0051261643 0.0070725824 0.009639846 0.0021520886 0.0006387199 0.009522916
environment -0.0049514337 -0.0012714887 0.003295967 -0.0064308965 -0.009678608 -0.009305232 0.009041589 0.0054317466 -0.0047997897 -0.008384614 0.0012930563 0.0028652535 -0.0012518442 0.0012899822 -0.004288455 0.0047716256 0.0014730404 0.008880228 -0.009980073 -0.005305917 -0.009082578 -0.0003543851 -0.007827225 0.0049984087 -0.006418639 -0.005954436 0.0050286166 -0.008149577 0.0014728945 -0.007228783 0.009854137 0.008645971 0.0017788339 0.0057468624 0.0046132836 -0.0059703276 0.009748396 -0.0096924305 0.008020322 0.0027521243 -0.0030396527 -0.0035921915 0.009097826 -0.00540807 0.008226425 -0.006043089 0.008380389 -0.0005851684 0.007956156 -0.0031508931 0.006031532 0.008816183 0.0025335257 0.0012897038 0.0050306576 0.008004278 0.00858712 0.008496226 0.0070747277 0.00800394 0.008603056 -2.7066766e-05 -0.000994347 0.0016988671 1.0413936e-05 0.0007291083 -0.008601382 -0.009541736 -0.0023745438 0.008935293 -0.003676402 -0.0069838245 0.0049252147 0.0010809405 0.001873925 0.003627345 0.003522872 0.005759444 0.0012185996 0.0008605618 0.008985593 0.0028039203 -0.004744647 0.00658714 0.0052278605 0.0028770322 -0.0030714592 0.0033661416 0.006378552 0.0070829573 0.0009834135 -0.008545292 0.00026273855 0.00036154455 0.00399681 -0.009454505 0.009716604 -0.0069519444 0.005746339 -0.0094409585
computers 0.0096490625 0.007329916 0.0012692206 -0.0034067016 -0.00044658364 0.000416325 -0.006403831 0.0057532056 0.0023676478 0.0037681109 -0.007253941 0.008528302 0.00050705904 -0.00020370513 -0.0090698395 0.0040455693 0.0067674736 0.007354643 -0.0064228396 -0.007857507 -0.0055247797 -0.0006036762 -0.00833106 -0.008247952 -0.00192539 0.0011397771 -0.009518719 -0.0037312876 0.00065048493 0.006811 0.0017340118 -0.0006341672 -0.007482548 -0.0067461208 -0.00069345435 0.0074725286 0.005440855 -0.001483151 0.001169982 -0.009609815 -0.001381683 -0.0046276855 0.005815266 -0.0023317486 -0.0047602104 -0.009484292 -0.0012002576 -0.0072064167 -0.0016822594 -0.004070845 -0.0023687424 -0.0032476245 -0.008158752 -0.001251968 0.0016850386 -0.0040452355 -0.007638171 -0.003583638 -0.009040762 -0.0007616503 0.0058848886 -0.0029581483 0.00316457 0.0050011086 0.008465342 0.005628224 0.009506861 -0.009639079 -0.007969815 -0.006761827 -0.007470735 -0.0079657715 -0.0077792667 -0.002939115 0.0013988432 -0.002884297 -0.00881931 0.004992603 0.00089791627 0.004593338 0.0071852 0.007655346 -0.00080980617 0.0036703532 -0.0051223068 0.0019112199 0.0045453543 0.009891658 -0.0031883263 0.0028370295 -0.0057311524 -0.0022139654 0.008126644 -0.00391013 -0.0011780512 -0.009281745 -0.009476423 0.008886237 -0.005708339 0.00504945
allows -0.006964625 -0.0024523477 -0.0080194725 0.0075037335 0.0061309165 0.0052584177 0.008381701 -0.0006980585 -0.00931464 0.009117553 -0.004928763 0.007848231 0.005538325 -0.0010818471 -0.007664855 -0.0014606288 0.0062582446 -0.006967515 0.0014356324 -0.007951546 0.008720144 -0.0028522224 0.009437704 -0.005712134 -0.009722036 -0.008627537 -0.0040796762 0.0047077825 -0.00024158426 0.009224005 0.0031107524 0.0037465699 0.0029909567 0.0081515815 -0.0023990206 0.00741169 -0.009534756 0.0029239552 -0.0006817799 0.00044977202 0.0068428814 -0.0028409192 -0.0023549227 -0.00010116581 -0.00050108286 -0.0035758046 0.0062430077 -0.006560251 0.007891796 -9.538771e-05 0.002609702 0.0032223407 -0.00028474402 0.0017023523 -0.0031429348 0.004759146 0.00024339631 -0.0032794608 -0.008715576 -0.0099998405 0.00031247718 -0.0057483455 -0.001107426 -0.004206771 -0.008636979 0.0010623339 0.005909266 -0.00221319 -0.0071736956 0.0031472703 -0.00038731366 -0.0055234204 -0.0011074984 -0.00063941925 -0.0031866485 -0.009960069 0.0076363785 0.0037252835 -0.002530959 0.007308868 0.00045443885 0.0071778726 -0.0015446785 0.0074946987 -4.223996e-05 -0.0060784984 -0.004716387 0.009631481 0.00058344775 0.0010270182 0.008449378 -0.0062895166 -0.0017636422 -0.008180912 -0.0066727237 -0.00858158 0.003929752 0.0027419978 0.0056125512 0.0025700724
natural 0.0021161162 0.005744189 -0.0021141525 0.0031723795 0.008449039 0.0003820193 0.0063019865 -0.0067332177 0.006567184 0.004679745 0.0050780512 -0.009921781 -0.0004231723 0.0032096882 -0.0058219256 -0.0066984026 0.0063704434 -0.006825584 -0.0051889205 0.008113119 -0.007013615 0.00854592 0.0006610114 0.0043990863 -0.0030186442 -0.0054328563 -0.008963501 -0.0006141245 -0.0050956984 -0.0030752488 0.008110434 -0.00764891 -0.006310929 -0.0052743233 -0.0066041127 -0.008825121 -0.001110227 0.009450364 0.008031182 -0.00527889 -0.008133932 -0.0022638477 -0.009260533 -0.005063906 -0.0059418776 0.0030178889 -0.007569938 0.0012421673 0.002289126 0.005315121 -0.0020139974 -0.009772844 0.005216995 -0.005909162 0.004879181 0.0019759862 0.008823976 0.0015292607 -0.0018225107 0.006484509 -0.0070650824 -0.008391986 0.0037968894 -0.0025687914 -0.004189983 -0.0019149905 -0.009880214 0.00027169194 -0.0010651775 -0.0029692592 0.0024996093 0.004687803 0.0063543245 -0.007905116 -0.0049857837 -0.008796857 -0.008955364 -0.0037206442 -0.0012787398 -0.008205718 -0.0053877574 -0.0021483726 0.006335349 0.0015794728 0.00831635 -0.0083167 -0.004567052 -0.0007962924 0.00880453 0.0011057196 0.0015510265 0.0012891655 0.002923871 -0.009401924 0.0032662477 0.0054705753 0.0052816547 0.0044399924 -0.008091337 -0.004062922
field 0.008374747 -0.0005698324 -0.00944177 0.004778568 -0.0060385778 0.0066708582 0.0053753345 -0.005021389 0.0025607701 0.0053946087 -0.003584382 -0.0015032045 0.009178484 0.009082464 -0.00937321 0.0075714374 0.00988842 -0.002835008 0.0024614565 -0.00281877 0.008665431 -0.0003010121 0.0056531643 0.009212305 0.0041111065 -0.0071331975 -0.001945683 0.0009798922 0.0020483441 0.0029667674 0.00945293 0.0043970193 0.009923815 -0.008694313 -0.005742173 0.002003533 0.003639735 -0.00098792 -0.0069217184 -0.003220289 -0.008525106 0.009399543 0.0037344445 -0.007870744 0.0032021827 0.004154996 -0.0056336895 -0.0059271795 0.0010365645 0.008973986 -0.009633306 2.8844586e-06 -0.0068824193 -0.0009328992 0.0030429782 -0.0050304313 -0.0027743771 0.00067764067 -0.0063582733 0.007275803 0.0043788287 -0.008551817 -0.0021444666 0.0031856066 -0.008347722 -0.007042632 -0.008452541 -0.005473345 0.008850374 0.0070863776 0.0028858848 -0.008564948 0.005760991 0.0046458016 0.00012676805 -0.008861177 -0.0018997944 0.00021858404 -0.0077613723 0.0024833046 0.0004621528 -0.007059175 -0.0082868 0.0060636797 -0.0083406065 -0.0055751503 0.0056039705 -0.00048027677 -0.003052747 -0.0052012424 -0.0011851686 0.0052589364 -0.005946418 -0.0049883667 -0.0049294317 -0.004749403 -0.007987535 -0.009768569 0.0075727426 0.007993315
for -0.0042810403 -0.009311635 -0.0018645084 -0.003714561 0.009097029 0.0029053336 -0.0059634545 -0.0033146369 -0.009896178 0.0018903447 -0.0039824424 -0.0027155804 0.0051925657 0.007616954 0.00441167 -0.0068413536 0.0067054476 -0.009650448 -0.007003511 -0.00801372 -0.0022325602 0.00049008074 -0.0037456437 0.0018560962 0.009203876 0.006667934 -0.001075165 0.009114988 0.001574484 -0.0019670848 -0.0066018254 0.0064786156 -0.00906459 -0.001937084 0.007697818 -0.0025453498 0.0016271085 -0.0073695113 0.004941646 0.007383533 -0.009307686 -0.003278297 0.007909209 0.002927568 5.0682294e-05 0.0003347832 -0.0098633785 0.009914744 -0.0019969994 -0.0048732734 0.0027667778 0.0010205151 -0.0059641823 0.0057647224 -0.00251243 -0.00617785 0.007255275 0.006480724 0.008843459 0.0011583839 0.0005153241 -0.007920753 0.004676815 0.009373291 -0.0006877129 -0.0017470893 -0.0038266296 -0.00044825985 -0.007652176 0.005703425 0.0015001583 0.009294893 -0.006381679 -0.005070488 -0.0062220586 -0.007296634 0.0027395678 0.004910744 0.001307995 0.0035732598 -0.009425812 -0.001063902 -0.007774441 0.002994508 -0.0026827215 0.008873571 -0.0033881632 0.006850963 0.0041199205 0.0013650286 -1.801628e-05 0.008175183 0.002365601 0.008235033 0.003375721 0.00543993 0.00510756 -0.0076435977 -0.00579485 0.0012199342
great 0.00020013578 0.0021501922 0.0010661965 0.007583955 -0.004423955 0.00032119942 0.007013124 0.002262253 0.004238386 0.0042920546 -0.0012726896 -0.0083229095 0.003044921 -0.008866324 -0.0026550856 -0.009397969 -0.00046059914 -0.007862311 0.0074102134 -0.0048962333 0.009923893 -0.009037624 -0.004308677 0.0019290363 -0.002997006 0.0014403049 -0.0036956249 -0.0008985827 -0.0057225632 -0.0098150065 0.0063390024 0.00038377775 0.0065114433 -0.007489644 0.0036654477 -0.00988656 0.0076065706 0.0059267054 -0.006121675 0.008207025 -0.0055807633 -0.008557966 0.0015033851 0.003184753 -0.008092918 -0.008944659 0.0091716815 0.0016380703 0.0008777171 0.0024838774 -0.0035019387 0.0017279689 0.0019553648 0.009804409 -0.0056117075 0.0022752997 0.006310055 -0.0066809687 -0.00893055 0.008655092 0.006843365 -0.0040223734 0.005747255 0.00079494296 -0.0050164345 -0.0013385136 -0.0049006147 0.0061453837 0.001955713 -0.008314863 -0.00014556064 -0.0026472472 0.006617941 -0.0011427252 0.0076714447 0.0019442331 -0.0038366208 0.008169279 0.0029488571 -0.0039648 -0.0056096367 -0.0030893935 -0.0051421546 0.0034479105 -0.009280449 -0.0058237626 0.0033516106 0.00020081225 0.005995194 -0.0036064622 7.661831e-06 0.0024726836 0.0054596085 0.0016038523 0.009824425 0.0037220495 -0.0071884138 -0.0014107174 -0.00837003 -0.005327671
in -0.0021989571 -0.009703519 0.009291281 0.0020269852 -0.0011620957 -0.0055263694 -0.008495153 -0.009888751 0.008947197 -0.0025269534 0.004590697 -0.004523007 0.009964161 0.0036593252 0.0010400884 -0.004057541 0.0012075272 -0.0026585883 0.0073464257 0.0044754073 0.0009998938 0.0034916606 0.0037242067 -0.006792412 0.008934606 0.0017237779 -0.005793034 0.008666845 -0.0012866581 0.008180013 -0.001506947 0.006997067 0.0027273395 -0.0043696268 -0.003744739 0.009212911 0.0016023308 -0.0060170083 0.00033175555 -0.001959036 0.0015820086 -0.007718231 0.007387152 0.0013065989 0.0078975195 0.004448344 -0.0043926802 0.0037404103 -0.0006262334 -0.00984753 0.008245399 0.009646896 0.009646023 -0.003812346 -0.008447046 0.0048334487 -0.0076464764 0.00854215 0.0027706241 0.005605746 0.0061201965 0.00046925628 -0.0020805786 0.00077093975 0.009832255 -0.007122393 -0.0015650582 -0.0023383524 0.004850832 0.006459301 -0.004127703 0.0036274204 -0.004452896 0.0032850187 0.008177601 0.003622476 -0.0045782565 -0.00301005 0.007843239 0.009617746 0.0058026616 -0.0032684838 -0.0018460916 -0.0062350547 -0.004286955 0.0033645614 -0.006466926 -0.00661051 0.008118642 0.009510616 0.008150326 0.001520533 -0.008787006 -0.0076068635 0.0015931317 -0.009516527 -0.0074025593 0.0020172994 -0.002916606 -0.009174952
programming 0.006416072 -0.008941843 -0.007338854 -0.0017538506 0.0017015485 -0.0010451794 -0.005199452 0.006592048 0.0087764915 -0.0074279974 0.009802126 0.007361007 -0.0074569453 -0.0018944348 0.004260049 0.0070511154 -0.0036610835 -0.006973752 0.0047200113 -0.009039381 -0.005844361 -0.0012826793 0.005484993 -0.0056878673 0.0047822287 -0.00043619162 0.0026542405 0.006410104 0.0014261835 0.007707096 -0.00032734356 -0.008261867 0.009174774 -0.00487004 0.0047234325 -0.0038917896 -0.0073243324 -0.006516801 0.004666906 -0.00065612583 0.0014632973 -0.008929865 -0.0051421407 -0.006050254 0.008418045 -0.008703172 0.0050250283 -0.0008717626 0.0001893593 0.008800198 -0.0035760636 -0.006939221 0.0007570873 0.007738485 0.009116328 -0.0036837256 0.0027381575 0.004946461 -0.0052847234 0.006850165 -0.0064533325 0.0021019655 0.0045919586 0.0043909447 -0.004664776 0.0026500726 0.0073072137 0.008621307 -0.0095226895 0.0055768364 0.0049653756 -0.0015933088 0.009199158 -0.0041787676 -0.0017470075 -0.0068679936 -0.0037785207 0.00024981282 -0.0032767747 -0.00540669 0.0065514077 -0.005297105 -0.0063274116 0.007649532 0.009649906 0.0039954716 3.943487e-05 0.0007924376 -0.00095680205 0.006863548 -0.0062462613 0.00050659967 0.0042932513 -0.0021198068 0.0009086869 0.0037143049 0.009712304 0.002174884 0.009498703 -0.0058326786
love 0.004804412 -0.0036272784 -0.004268049 0.0012159956 -0.004126372 -0.0056412537 0.0031486556 0.008351569 -0.006551258 -0.009131374 -0.00333309 0.007523669 -0.009687131 0.009607744 -0.00040850652 0.0022969374 -0.0018509483 -0.0057614865 0.0030967933 0.00619062 -0.007047551 -0.0011770327 0.0015636799 0.004241079 0.0071415706 -0.0035608176 0.007266847 -0.0055680084 -0.0021908872 0.009081779 0.0053813714 -0.008484585 -0.0016520664 -0.008851049 -0.0016397573 0.005665584 -0.007417426 0.0055081532 0.0060854377 -0.0037733258 -0.009657149 -0.0025250586 -0.0025465835 0.003760218 0.008932414 0.0019922326 -0.0021141514 0.0029643003 -0.0067939945 -0.0012880312 -0.0014784235 0.009602535 -0.005809509 -0.0070433076 0.0023619677 0.002638714 -0.0071383654 -0.005874155 -0.001176381 -0.0032980987 -0.008969306 -0.0040474986 -0.0029628763 0.0065048193 0.0009711371 0.0016063158 0.00027429694 -0.0033706084 0.0030937851 0.000720909 0.0059836544 -0.0007770549 -0.008884017 0.00088845496 0.009933789 -0.005253797 -0.005217603 -0.0025123477 0.008576431 -0.00082988903 0.009407707 -0.00833374 0.009002427 -0.009700003 0.009204446 0.001871586 0.00266576 -0.005855881 0.008448041 0.00605001 -0.005475441 -0.009499354 0.0069706505 -0.0055409917 -0.0093092555 0.0026041025 -0.0049774293 -0.0073652323 0.009733188 -0.0015963212
fascinating -0.0015117745 -0.004033402 -0.004399897 -0.0046296637 -0.005595906 -0.0053023146 -0.008022063 0.009520206 0.0064006243 -0.0036076608 0.0024797353 -0.0076425145 0.0075250026 0.008305115 0.0007900408 -0.006833294 -0.002955848 0.004733332 -0.0029406745 0.0031775779 0.009410365 0.004353087 -0.0051440257 0.0054696715 -0.0028806021 -0.006394583 0.0070091076 -0.009254003 -0.0011302886 -0.0013851922 -0.008415764 -0.0011026906 0.0055973083 -0.0052690017 -0.0070265317 0.0062022437 -0.0034249846 -0.0078211 0.00029142175 -4.8565977e-05 0.0075413454 0.0005708828 0.007884315 -0.009814519 0.004034886 0.006219367 0.0010295063 -0.002837431 0.0010262963 -0.0008389057 -0.00810895 -0.006783942 0.0011982691 -0.0020195981 0.009549398 -0.00094988255 0.006119239 0.0020477513 0.008100692 -0.009291354 0.0023933148 -0.0014512733 0.002156146 -0.00021976985 -0.0066410885 0.009049713 -0.00284441 0.0019152304 -0.0064418283 0.0037135452 0.009997635 -0.0011975819 0.0065809246 -0.00012244683 0.007928458 0.009650302 -0.0003922495 -0.0016974008 -0.009523775 0.009876154 -0.0025339487 0.0021897748 -0.0016989519 0.008328797 0.008343506 0.0015361443 0.0028876709 0.006435303 0.0022473163 0.006442943 0.00014556418 -0.0022854083 0.0053070644 -0.0034162896 -0.00261472 0.008791948 -0.009155147 -0.0034157801 -0.0029241985 0.005669151
intelligence 0.00794636 -0.006449802 0.005796084 -0.00021287658 -0.009021184 -0.0024654786 -0.0015794262 -0.0044599553 -0.00078927784 -0.0052685095 0.0059546125 0.009301918 -0.0015768551 0.0033810388 -0.00073182886 -0.0007008938 -0.0070009567 0.0014443398 0.0038961577 0.006901821 0.006550924 0.0035461802 0.004677684 -0.007438969 -0.0013878286 -0.0057826126 0.0067922384 0.007849214 -0.0042670574 0.0011591844 0.00510244 0.0018098362 0.0007844653 -0.0067563504 0.009833725 -0.007241322 -0.0060265795 -0.0056824614 -0.006365263 -0.0034846477 -0.009396926 0.0011752415 -0.0037410741 -0.0025578798 0.005808495 0.0035456235 0.0018217557 -0.0013895677 0.009879885 0.00029315223 0.005024813 0.009038828 -0.009780866 -0.0091707995 0.0099213915 0.0027354634 -0.0018777745 0.004741086 -0.004309011 -0.0063939844 -0.008263282 0.007215452 -0.0024378027 -0.007536602 -0.005912078 0.006181407 -0.0024864064 -0.0061229817 -0.001635704 -0.0014730456 -0.0032525396 -0.0020960767 0.0041248067 0.0014549925 -0.0034881325 0.0026740464 0.005221961 -0.009183687 -0.007578118 0.006306757 -0.008956103 0.0005383533 -0.009005783 0.008392753 -0.004287101 -0.0066178725 -0.0013606413 -0.0011063558 0.0075421436 0.009109057 -0.00034981492 0.00269429 0.004744788 0.00013477451 -0.0057556327 -0.00058680365 0.002193844 0.008297309 -0.0035939 -0.009856442
artificial 0.0053860648 0.009815214 -0.0070464257 -0.00058236 -0.005063538 0.0064279367 0.009660726 -0.0003202888 0.0051379125 0.006522606 0.004409968 -0.008035791 0.0030999905 -0.0014880671 -0.0021592875 0.0053983494 -0.0013172437 0.009925085 -0.0006395871 0.00025904446 -0.002291845 -0.008511291 -0.009808771 0.0049510775 -0.0066273804 0.0029671649 0.00276672 -0.007001399 -0.0031286853 -0.00580489 -0.008571273 3.9348066e-05 0.009786615 -0.0066861054 -0.0043574236 0.00833094 0.009302603 0.009808596 -0.009896679 0.005052097 -0.0066337166 0.006873159 0.0061442535 -0.0033719414 0.006894002 -0.007870272 0.004547617 0.0045716767 0.0059246044 0.005879428 -0.0026554654 0.003896725 -0.006111392 -0.006466711 0.0027387277 -0.009468701 -0.00029496537 0.0010943584 0.008012011 -0.0069987993 -0.0023243546 -0.004104195 -0.005225671 -0.00046645032 0.0046167183 -0.0049748896 -0.0016424456 0.008668279 -0.0013196404 -0.0035734049 0.0074259248 0.0012196491 -0.00033018782 0.009459401 0.00812804 0.0034147943 0.0033602605 -0.0022829887 0.008093156 0.0050676693 -0.0054404177 -0.006130504 -0.00060323614 -0.00791215 0.0033626254 -0.009225413 -0.001530265 0.0033588125 0.0030511816 0.0031611377 -0.00905997 0.00341867 0.0053480007 0.0034687337 0.007803894 0.0016568931 0.006276075 0.008841964 -0.0009440332 -0.00080219266
with 0.0022529233 -0.007522799 0.005642038 -0.005013387 -0.0032535298 -0.0018679622 0.00822779 0.0023084676 -0.0009246214 -0.002893575 -0.0021181707 -0.0012882791 -0.005082725 -0.0040966673 0.0002262484 0.0045393663 0.0017863591 0.006910504 0.00064438995 -0.0032638805 -0.00734443 0.0059912466 0.006997521 -0.006066277 0.0046637338 0.0094951745 -0.0064229574 -0.0028664884 -0.009069443 0.0032443078 -0.0034447424 0.002056195 0.009451952 -0.008406295 -0.009284946 0.0017458607 -0.008052844 -0.009077988 -0.009387155 -0.00029173592 -0.0010809994 0.000708638 -0.0013200032 0.009069351 0.008821672 -0.006394839 0.00869424 -0.009055228 -0.0013332097 0.0025401437 -5.683951e-05 -0.0037982455 0.0004481968 0.0009903761 -0.009410617 -0.0048872144 -0.007697182 0.0038015347 -0.00086003344 -0.0074943947 0.005632635 0.00024397453 0.0027099275 0.005470628 -0.0042342185 0.007893251 -0.00784995 -0.0033861944 -0.007421187 0.0009883803 -0.0074110073 0.009053924 0.005573088 -0.0072164545 0.006195599 0.006583322 -0.0074220924 0.004696627 -0.007731432 0.009341633 0.0046290685 -0.00021431631 -0.008977686 -0.00084995973 -0.00025984994 0.0009163305 0.008728191 -0.0027480135 -0.008668682 -0.008831081 -0.0010189326 0.0013502934 8.651117e-05 -0.0022166823 0.008592804 0.0001212614 0.0064278315 0.004001551 -0.0072129536 -0.0021250374
interacting -0.0077754008 -0.006752734 -0.0031454894 0.00659929 -0.000831836 0.008849157 -0.0022840763 -0.0052636727 0.0039276765 0.002174785 -0.00027807508 -0.0024719338 -0.0060069063 0.004049339 -0.0075909933 -0.00892762 -0.009166363 0.008375791 0.00400918 0.007074222 0.009897687 -0.007214456 0.0040410543 0.0028185507 0.006144101 -0.0033790623 0.0093139885 -0.0057829837 0.0070350985 0.006956914 -0.0003996703 0.0050677294 0.006653081 0.0015150494 0.0073751714 0.0024271386 -0.0015180993 0.0073669534 0.0046551004 -0.0031650756 0.0016554487 -0.00015307654 0.004968163 -0.0054039545 -0.00415923 -0.00095505005 0.0038141394 -0.0065980605 0.007848375 -0.0030869795 0.0057707117 0.0028610441 0.0068172654 -0.004485696 -0.0031990998 0.0030562924 -0.0027567255 0.0059399977 -0.00593946 0.0025940165 -0.000725303 -0.0006211256 0.0025527563 -0.0021665308 -0.0042504095 -0.00852869 0.0024820303 0.005358338 -0.0059134816 0.009120564 0.0040285657 -0.0051680487 -0.0012746283 0.003929036 -0.0069870846 0.0020525395 0.005507108 0.0062653446 0.0054071983 0.003672005 -0.0027911437 -0.0060664355 0.0081353625 -0.0072731324 -0.0016116203 -0.003262545 0.006535935 -0.0062561985 0.0034028473 0.0020515348 -0.0040446976 -0.008240218 -0.008041643 0.0034992332 -0.009535876 0.0057196137 -0.0029059602 -0.009159625 -0.005141135 0.007739448
learns -0.0017165439 0.0064036916 -0.009274715 -0.009151396 -0.005196982 0.00093473535 -0.0071663726 -0.009429862 -0.008886243 -0.0004796947 0.007411292 -0.008386862 -0.0053336225 0.001526825 0.0033317397 -0.00846672 0.007857469 -0.008221379 0.0047455137 0.009397592 0.005669214 0.006172381 0.00824918 0.0034362902 -0.00714304 0.005742993 -0.0083279805 -0.005724428 0.005907003 -0.007921923 -0.005869972 -0.0035524438 0.0034071656 0.0052056536 0.0020620849 0.005121014 -0.0026406874 0.0043477817 -0.00705649 -0.0016701657 -0.0077376477 0.00015956594 0.004699196 0.0048085186 -0.0046428395 0.0017352195 0.007803045 -0.005580239 -0.0037820437 -0.00059375097 -0.0047033434 0.008696094 0.007546547 0.009216218 0.009367292 -0.008449381 -0.00047100775 -0.007612832 -0.004809084 -0.008839714 0.0034140283 9.876876e-05 -0.0069128065 0.00797257 0.000948707 0.00031830466 -0.0035671769 -0.0033294207 -0.0026657633 0.007632657 0.002379831 -0.0051663253 0.0047526336 0.0009913914 -0.0027196226 0.00770179 -0.003946142 0.0074360985 -0.004220415 -0.0073464303 -0.0045120143 -0.0038939784 -0.00072074536 -0.0018284989 0.0051177493 0.0054515307 -0.0017171294 0.0037397905 -0.002022771 0.00074115273 -0.0013415749 -0.0024613563 -0.004720725 -0.004268851 0.00013956538 0.0016588506 -0.009451982 0.0060848217 -0.0016825628 -0.0029797978
agent -0.0047657574 -0.0043194974 -0.00479931 -0.009812111 -0.0007738434 -0.007807466 -0.004808531 -0.00734035 0.009923874 -0.0013769888 -0.0077589173 0.005525411 -0.008062923 -0.0018812533 0.0027547008 -0.00708621 -0.008735443 -0.006631463 0.007467871 0.009032478 0.0040167035 0.002385307 0.004162508 -0.00406695 0.009750807 0.006879598 0.004086975 0.008950887 -0.008382828 0.00095112325 0.008904862 -0.00093224045 -0.0067242947 -0.0023068588 -0.002772925 -0.0024801039 -0.0018609489 0.007282702 -0.0003157563 0.0042303097 -0.003747317 0.008209924 -0.0064859106 -0.009320853 -0.0041171 -0.0073859137 -0.0048735966 0.0004782841 0.0023871881 0.0017459291 0.005030373 -0.0013983981 0.0022655732 0.0003438594 0.007840025 0.008026409 -0.001972196 0.0012535691 -0.0060214647 -0.004774526 -0.0069636498 4.989922e-06 -0.004904156 -0.0040189023 0.0014827648 0.0026441868 -0.00911445 0.0017821245 0.0051075504 0.0041756476 -0.0029107074 0.009474771 0.009469903 -1.1083133e-05 0.000873965 -0.009261588 -0.004821128 -6.4181004e-05 0.0040376666 0.00017603631 -0.008751943 0.0058153 -0.0074443477 0.008585791 0.005525337 -0.006775886 0.002880792 0.007731469 -0.0061082924 -0.0065509095 0.009223265 0.0017868648 0.009714097 -0.009922777 -0.0014786809 0.0069102137 -0.0014621036 -0.001764935 -0.0070929867 -0.00566723
where -0.0065072286 0.008921691 -0.0015772468 -0.008293104 0.008020174 -0.0030073163 -0.0013210484 -0.00061998493 0.0028229912 -0.0047788355 -0.00025320522 -0.0028562471 0.00877911 0.0069042565 0.001139983 -0.006077113 0.0031264517 0.0011344195 -0.0061177863 -0.005776918 -0.0030855036 0.0023825944 -0.008097442 -0.0050103506 0.008091674 -0.0037008142 0.007932228 0.00055318617 -0.0055254675 -0.004955357 -0.00022106555 0.004594074 -0.006071695 -0.0055533154 -0.006801521 0.006768746 -0.0024117152 0.0039914753 -0.0016507406 -0.0074194064 -0.0012600477 0.0003856464 0.003600898 -0.008665748 -0.0067652976 -0.0065802876 0.0029787729 -0.0037593243 0.0010287298 0.004163773 0.0045596207 0.002365269 -0.002891858 0.0006244089 -0.0053809835 -0.0063452474 0.00873679 -0.004052577 -0.009304214 0.0037341246 0.008451793 -0.00018106928 0.0022699272 -0.0035217076 -0.0041933283 -0.008579596 -0.007863017 -0.009031266 -0.00601145 0.00849943 0.009428443 -0.0016847184 7.172853e-05 0.007860868 0.0012895417 -0.005159041 0.0026277895 0.0018291874 -0.0037483445 -0.004878923 0.009600309 0.007659157 -0.00860874 -0.00547621 0.0014366616 0.00092487724 -0.008303076 0.009348945 -0.0053624883 0.0046059904 0.009273705 0.0010905493 0.004217644 -0.0027177942 -0.0096347 0.00062626816 -0.0010887443 -0.00991311 0.0070015974 -0.0074010296
type 0.0051336247 -0.004414954 -0.009184523 -0.009080789 0.006232509 -0.0052707666 0.0052504563 -0.0015394491 0.009707611 0.007122069 0.009903118 0.008369598 -0.00786731 -0.0095649585 -0.005543447 -0.00082188006 0.004996905 0.0036537284 -0.0020158389 0.005022328 -0.0033836374 -0.0068104765 0.0047315457 -0.009855562 0.0008826983 -0.0050064633 0.0075834803 -0.0036921822 0.0028231463 -0.0062405644 0.009611915 -0.0055903783 0.003592451 0.0032089332 0.008949827 -0.0055414787 -0.004372769 -0.0062517743 0.0061170487 -0.004575388 0.004814391 -0.0009086421 0.007284333 -0.006022301 -6.652904e-05 -0.00010510226 -0.008552169 0.008724572 -0.0021053883 0.00644352 0.00011504852 0.0050323135 0.0021995266 0.008833934 -0.00832632 0.008428106 0.008672387 0.0010656574 0.004439364 0.0038331372 0.004058241 -0.0029453465 0.0028504117 0.00079004426 0.004824855 0.008436219 -0.0077455794 0.00019246485 -0.008776783 -0.0015546972 -0.009045023 0.0031693326 -0.0015421925 -0.0006928377 0.006447364 -0.0081059 0.0011437252 -0.0024034034 -0.00374872 -0.007261091 -0.008013597 0.008297587 -0.007476054 0.004856658 -0.0037828898 -0.001208019 0.0028505067 -0.008572367 -0.0056464127 -0.0077332617 -0.0093845995 -0.004748709 -0.0031711876 0.00047399223 -0.0006780986 -0.007858874 -0.0037805743 -0.0027381098 -0.0063935225 -0.0063858298
reinforcement -0.0025607161 -0.007917885 -0.008261287 -0.007600523 0.0035744586 -0.0076214042 -0.0037067165 0.006687155 0.0073680873 -0.0064410744 0.0067877946 -0.0077559277 0.00013438564 0.006664552 -0.0027958213 0.009217188 -0.00033494947 0.00470897 0.0069535966 -0.008574682 -0.0060383957 -0.0073340475 -0.001137911 -0.0071040005 0.0001035778 -0.008064154 0.00046104897 -0.00037996328 0.0064979997 -0.008860977 -0.0031621375 0.0058966884 0.009250215 -0.0018420361 0.0008044914 -0.0060683796 0.0007919017 -0.008130445 -0.0076549808 0.0013671528 -7.695498e-05 0.0055317674 -0.009711484 0.0016868261 0.0016040474 -0.0052866293 7.27449e-05 0.0060347295 -0.006593383 0.00030074682 0.003935621 0.0017037083 0.0028401345 0.008152686 0.006688579 0.0035126868 0.007981627 -0.0076683117 0.007550169 0.0038705394 -0.005897023 -0.0041779988 0.006398651 0.0058438955 -0.009889363 0.0013043265 -0.00039014392 0.0008645552 0.007048764 -0.0071507785 0.009624992 -0.009475416 0.0062556234 0.0095145935 -0.003805437 -0.009420994 0.00616528 -0.008906488 -0.008297747 -0.00080729084 -0.006694879 0.008759721 0.007808452 0.00087535474 0.008020159 0.009858415 0.005235122 0.004332855 0.0053873397 0.0064102556 0.004763339 0.006356632 -0.007447079 0.0088329455 0.008326406 0.009396898 -0.009017331 -0.0034614375 -0.00035660813 0.0041580573
brain -0.008201816 0.00017966212 0.0060237893 0.009573873 -0.0028469362 0.0018163744 0.0063450504 -0.0019795042 0.0019562151 -0.009346269 0.0007022944 0.004581348 0.004511933 -0.0097395405 -0.005132404 0.0029601413 0.0015998337 -0.00470407 0.0058060363 0.0034975691 -0.0077988636 0.009834141 -0.007701655 -0.003031977 0.009740755 0.0011332867 -0.00556647 0.0011199014 -0.0040812152 -0.0067327195 -0.0077561354 0.004773253 -0.0090254145 0.0040314854 -0.0055152797 0.0054572443 -0.0043597026 -0.0055885674 0.0063236835 -0.00864668 0.0013352257 -0.0021314318 -0.006676232 -0.007656077 0.0067763347 -0.004479042 0.0045862533 -0.0096698515 0.0019141521 -0.0019472898 -0.005888035 -0.002795059 -0.008670751 -0.0034905614 -0.0025864837 -0.0022846255 -0.005109913 -0.009194033 0.005349654 -0.0013034724 0.006183663 0.0030750262 0.008564166 -0.0035013973 -0.008895578 0.0013490265 -0.008996215 0.006067161 0.0084185535 0.00050477125 0.007704833 0.008538848 0.004220775 0.005429136 0.009134904 0.0011327362 -0.008257357 -0.008313163 -0.0017984075 -0.0006042071 0.00880064 -0.009311214 -0.0026104003 0.009132684 -0.0014412126 -0.009086559 0.0020542715 -0.0058238544 -0.0054806774 -0.006341515 0.00014526882 0.0072229635 0.0041217576 0.00814355 0.008867236 0.0045191594 -0.006058753 0.007060734 -0.00952361 -0.0047992114
the 0.008003641 0.007908047 -0.0054202466 -0.007978444 0.008071152 -0.0038189841 -0.0040596025 0.0071960627 0.0054190676 0.003804604 -0.001235093 0.008662401 0.008458343 0.0069767796 0.009074206 -0.0057842536 0.0009955231 -0.0016333354 0.0063436446 0.009769768 0.0051749577 0.0040570577 0.0065365285 0.005876138 0.00010527718 -0.008350326 -0.0021780813 0.0090770805 -0.005079174 0.0010092141 0.0048719207 -0.0069229775 0.00819703 0.0014579374 0.0024271582 0.008317581 0.0014520569 0.0008808358 -0.009436405 0.009856643 -0.009863633 0.008545982 0.005051357 -5.6232e-05 -0.007865762 0.009333615 -0.0013764529 0.00533689 -0.0030308408 -0.004898846 0.00017083844 -0.008036797 -0.006646417 -0.00945711 0.0053530587 0.00042646306 -0.0009148676 0.005098337 -0.0019715356 -0.0073863133 0.0028706032 -0.005963125 0.00049419835 0.009479694 -0.0009589233 0.006153917 0.0044613546 -0.0035216329 -0.005238691 0.008861371 0.0021031583 -0.0004429642 0.000912228 -0.004919357 0.0035480866 -0.0030990662 0.0042129257 -0.004554272 -0.0008035629 0.003908482 -0.0071601095 -0.0025252555 -0.008733441 0.0015675557 0.0020102968 0.002402635 0.001095546 9.3034105e-05 0.0022172823 -0.00094377954 0.005933226 -0.0029530572 -0.005088585 -0.0053276275 -0.009654247 -0.008107844 0.002112281 0.003983975 -0.0057707415 -0.009684954
inspired -0.0061553945 0.004668392 -0.009070925 0.005080596 0.006351833 0.0061208867 -0.0076307226 0.002832861 -0.005452918 0.009047107 -0.0043126917 -0.0023511695 0.0052211843 -0.0008233929 0.0050927605 -0.0042199898 0.0049811043 -0.009795018 0.0060749366 -0.0012433863 -0.00560704 -2.0213127e-05 -0.0012235976 -0.00072200416 -0.0017617584 -0.009273197 -0.0078031956 -0.006800139 -0.008628174 -0.0045369817 0.009188095 -0.0018121279 -0.0075968313 -0.005893874 0.0036052454 -0.0027167546 -0.0015587664 -0.0042538703 0.0059619034 -0.007832105 -0.0074977935 0.0075257923 -0.006960554 0.002156757 0.00036995768 0.009667677 0.004240671 0.002067107 0.002755525 0.0023034883 0.0021998524 -0.002722143 0.0040911864 0.0061002136 0.008937504 -0.0007484388 -0.0012222207 0.0064669144 -0.0084649185 -0.0006562436 -0.006673245 0.004783307 -0.008947241 0.0032498038 0.009004738 -0.0020674933 -0.008829994 -0.008178635 0.0032460666 -0.0053461827 0.0064476575 -0.0011888706 0.007853673 -0.00050307036 -0.0062165903 -0.005701473 0.0007689619 -0.0047776187 0.0065614413 -0.0035186673 -0.005626793 0.0009534168 -0.0048695467 -0.008211779 -0.005247861 -0.0018617142 0.00043590783 0.0036384452 0.006868893 0.006727966 0.0058613596 0.00032028914 -0.005821494 0.008999587 -0.00065279123 0.0047100363 -0.0014244199 0.0057981694 0.0053030336 -0.007297273
algorithms -0.0027374793 0.000113747294 0.0020384972 -0.009289741 0.0048355935 0.0033628675 -0.00016048738 -0.0034829213 -0.0075998604 0.0075797173 -0.008611594 -0.00738984 0.00444792 -0.008508428 -0.003276462 -0.002099086 -0.0019014515 -0.0068318127 0.004289705 0.0009966613 0.0036655026 -0.0013243718 0.006934994 -0.009532058 0.005846531 -0.005128265 0.001687086 -0.0069462475 -0.0024738023 -0.0064242682 -0.0033546137 0.009743367 0.0026914903 0.0015935268 -0.006079758 0.005578365 -0.008119752 -0.0022966133 -0.0064807967 -0.006378396 0.0023010308 -0.0032872998 0.0024317866 0.0039177723 -0.0062651765 -0.0017515165 -0.0027628832 -0.009797703 -0.009832815 0.0011107853 0.0043916223 0.00022516314 -0.004872061 0.0036153456 0.0016796008 -0.009436724 0.007184011 0.0077677537 -0.007722678 -0.00075909717 0.0060321824 -0.0027770612 -0.0003311821 -0.00421342 0.0061261076 0.007001968 0.0020825374 -0.004688458 -0.001847506 -0.0040006307 -0.009768418 0.007816801 -0.00060310005 -0.0006068213 0.007086874 -0.009040323 0.0063295728 -0.0075634755 -0.005361766 0.0050835838 -0.0035071245 -0.0034857776 -0.006308773 -0.0039056386 -0.0026607437 -0.0040989523 0.009479361 0.009458921 -0.0003837479 -0.00028348106 -0.005624536 0.007913149 -0.004939231 0.0058886167 0.00912071 0.0057501253 -0.00094495213 0.005544225 0.0069464934 -0.003878692
are 0.0006788177 0.006495941 0.0058708047 -0.00017514589 0.0023789594 -0.0065175607 -0.009354191 -0.004939879 -0.0053911265 0.0005801052 -0.0039711786 -0.00036903704 0.007641574 0.009742507 0.007883181 0.0023895577 -0.0027089033 0.0024330136 -0.0026941125 -0.008955178 0.0069045834 -0.0086527215 0.003792426 -0.0039532543 -0.005543577 -0.0010465279 -0.0065740007 0.008579835 -0.0068673724 -0.008956427 0.0057685254 0.004468435 0.0047341743 0.0024123946 -0.0037196784 -0.0051061185 0.001777501 0.008348749 -0.0056618867 -0.0023813136 0.0018513006 0.0067183087 -0.0063919416 -0.004526037 -0.0026345502 0.0013314058 0.0053675044 0.005548404 -0.008710086 0.007274064 -0.0024935142 -0.0028433704 -0.008867506 -0.005775133 0.009442002 0.0030911325 -0.008042552 0.0028051238 -0.0070714084 -0.009058636 0.0038671414 0.0020400018 0.0012559954 0.008856466 0.006263995 -0.005064973 0.0027245197 0.0025528953 0.0023935759 0.008332963 -0.0069143954 -0.0023031197 0.0010130556 0.0063825366 -0.00064860564 0.007919707 -0.0046557663 -0.009021119 -0.0070536905 -0.0041266745 0.009573905 -0.005127707 -0.0048495103 0.008175597 -0.0074577485 0.0020111294 0.005730154 -0.0075249616 -0.0002603467 -0.0023694101 0.0055751433 -0.0045638056 -0.00660828 0.009889059 -0.0046166796 0.007601682 -0.008460281 0.0070116925 -0.0033914903 -0.0078121615
handle -0.0011576032 -0.002366936 -0.0018229767 -0.0011679507 -0.0065053157 -0.0035541495 -0.003183567 0.00775 0.0058506806 -0.00090780633 -0.0048266747 0.005297833 -0.008835088 0.0016617558 0.004029804 -0.001951531 -0.0045247707 -0.008221591 -0.008293112 0.0071034776 0.0036480722 -0.00039756994 0.009718355 -0.008563672 0.0005847389 -0.0004544181 -0.008104798 -0.009104664 0.0071980837 -0.0036228234 -0.007899828 0.007955529 -0.0062485537 -0.0031360176 0.0017856263 -0.0033292125 -0.007980999 -0.003912083 -0.009016129 0.0013815296 -0.0046180007 -4.699893e-05 0.002730794 -0.0023591905 0.0088329185 0.007018565 -0.0005482298 -0.0006463528 0.00086387794 0.006750776 0.008961446 -0.0019408168 -0.0015893158 -0.002973586 0.0004952317 -0.0064672222 -0.0018695832 -0.008660663 0.00066957047 0.001433251 0.0037371763 -0.0028726882 0.005940219 -0.007058593 0.009808341 0.0005594394 0.0023009824 0.0043938146 0.00039317945 0.002608169 0.0016085125 -0.009622617 -0.0031289186 -0.0025877217 -0.009248092 0.0034192933 0.0047909035 -0.002058619 0.00741632 -0.0012145392 -0.00029295607 0.005780625 -0.008488876 -0.0068885954 0.007365615 -0.0065822904 0.008487864 0.0053598885 -0.008042544 0.008404265 0.006342051 -0.006732154 -0.008455945 -0.008841748 0.0038491013 0.0063438294 -0.0021307673 0.0013490597 -0.008389028 -0.0051244916
not 0.0047039064 -0.009062948 -0.009233853 0.0010068987 -0.008585 -0.006943617 0.0047544795 0.008015924 -0.007357358 0.008096569 0.009381737 0.0047099725 -0.004407247 0.009673823 -0.0077233273 -0.0038929 0.0019369749 -0.007633218 -0.0098756645 0.0028586113 0.008180575 -0.005115907 -0.0042875926 0.0039090747 0.00068994885 -0.008533311 0.0065489723 -0.0031491788 0.0035854357 0.0031546284 0.00887686 0.008737837 0.007313854 -0.008295921 0.0012100264 -0.0009608707 0.0008781836 0.008917612 0.004766606 -0.008926199 0.009812701 -0.00089406804 0.0004030773 0.004958658 -0.006208613 -0.0004112176 0.00137386 0.0070488304 0.0042819893 -0.0019380548 -0.00846184 -0.0038801916 0.00877614 -0.009492609 0.00984359 -0.0001537218 -0.0011257078 0.009603863 0.009576365 0.008272012 0.009002002 -0.009984991 0.0075087515 -0.009355593 -0.0077151665 -0.008821748 0.0021560579 0.007191787 -0.006313122 -0.0027104043 -0.00235634 -0.0044760467 -0.0013037685 0.004858407 0.0037191932 -0.003241797 -0.0037141594 -0.0023327933 -0.0032308141 0.0039524958 0.009736049 0.007855581 -0.0075654597 -0.0064411345 -0.009131066 -0.0059288135 0.0036433975 -0.0060155327 0.0016942652 0.008885032 0.0033441018 0.0011900342 0.008920894 0.0064132777 -0.0014311492 -0.006207749 -0.0010595443 0.0072749336 0.0074769063 -0.004032375
can 0.009969818 0.002415551 0.005127465 -0.005661506 0.0043926192 0.0002525068 -0.009569406 0.0050919214 -0.009030176 -0.0064764903 0.002765363 0.009289455 -0.0021079553 0.0069959257 0.0050916653 0.0040557026 -0.0061898213 0.0050793635 -0.008304064 -0.0043455106 0.005480226 -0.008166829 0.005738135 -0.003496077 2.694851e-05 -0.0073518637 -0.006286058 -0.0033135088 0.00862275 0.005360477 -0.009683408 -0.0065583056 0.0034272198 -0.008541937 0.0066820825 0.006183602 -0.00931226 0.008672814 0.007831815 -0.0018054667 0.0017942815 -0.005733475 0.006228703 0.0077239657 0.0040553636 -0.008884142 0.0049420116 -0.003068812 -0.0021975068 0.006104058 0.0018658421 0.00462227 -0.0062834197 0.00523481 -0.0035531188 -0.0003777693 0.006209443 0.0040602926 0.0074812043 -0.003921912 0.0035538203 0.007313759 -0.0032745153 0.0057906113 -0.009412004 0.008866348 0.0037697358 0.005353268 0.004627684 0.0045802784 -0.0033123535 -0.006214037 -0.0022756325 0.0014027052 -0.0029268812 -0.008497949 -0.0062995777 0.0083786035 0.009353615 0.005975824 -0.004128255 0.0006904148 -0.0085848905 0.0066670347 0.00047587446 0.0073710056 -0.005334878 -0.0028355108 0.0028612553 0.003455576 -0.006512274 -0.0073855463 0.0020416745 -0.009022731 0.00580363 0.0054673553 -0.003809444 -0.0056428304 -0.008325235 -0.0018970127
software 0.0069789034 -0.00020673165 -0.007943209 0.008889353 -0.008551927 0.00555478 0.006471609 0.0009865847 -0.0086911535 0.006164324 -0.007846705 -0.0050218175 0.009625057 -0.008279391 -0.007621687 -0.0049036546 0.0034661472 0.0019120807 -0.005561155 -0.0032821922 0.008585822 0.009766092 0.009917543 0.0010469643 0.0040354365 0.0013686694 0.0016662813 0.004837623 0.002207174 0.00030304783 -0.003151345 -0.0065239705 0.007991857 -0.0059821056 0.0027848522 -0.0009203797 -0.0036471728 -0.0049453503 0.0032157584 -0.0058583203 -0.007492926 -0.0026473624 0.004694296 0.0060470863 -0.0014514566 0.007292674 -0.007594942 -0.0047341813 -0.007860111 -0.006045818 0.0073084473 -0.009283931 -0.00865641 -0.009817293 0.009199322 -0.002664946 0.0010019916 -0.006129277 -0.0025299906 7.2291776e-05 -0.0024985026 -0.0073723174 -0.006187788 0.002542446 -0.009495756 0.0011544549 -0.0019907597 0.008288179 -0.00040847287 0.0062176725 -0.007086316 -0.007564724 0.0055549974 0.00094111805 -0.005084654 -0.0026616352 0.008769685 -0.009169136 -0.0036784904 0.0010042529 -0.00022371083 0.009514724 -0.0019432951 -0.007088837 -0.00767777 -0.0098997075 -0.007813318 -0.0060276496 -0.005948063 -0.0014080459 -0.0005301624 -0.0047164327 0.0021389253 0.0038674613 0.00903884 -0.0046520596 0.005124693 0.007253738 -0.0037609537 -0.007432898
traditional -0.0033291162 -0.0068862867 0.00649894 0.009392378 0.008275165 -0.008537215 0.005060946 0.005114047 0.005630749 -0.0083286995 3.5228636e-06 -0.0068215826 -0.008914872 0.0025015755 0.009932891 0.0064953715 -0.0070668254 0.0023377943 -0.0038953389 0.009898795 -0.008793355 0.009727239 -0.0065104645 -0.007009602 0.0016281487 -0.0006598401 -0.008545997 -0.0006100384 -0.0003544182 -0.006253974 0.005757762 0.0031874443 0.008408511 0.007380539 -0.0066334945 0.0047991886 0.0056887157 0.0057775383 0.0051942994 -0.004786582 0.0043285727 0.0012953748 6.273192e-05 -0.0064513963 0.001532337 0.0052338964 -0.009210506 0.008596724 0.0029957127 -4.518961e-05 -0.0033483065 0.0003525098 0.0060840137 0.0047733826 -0.005953776 0.007878892 -0.00065030454 -0.008175912 0.008869415 0.00506639 0.0036262688 0.007899681 -0.0075149154 -0.0058026877 -0.0020072216 -0.004080527 -0.0015982742 -0.0005654326 -0.008412625 0.0019171392 0.0025491447 -0.00083645777 0.0048841243 0.0014656938 0.0059927073 -0.0022480171 0.00851181 -0.0015488085 0.0030826419 -0.0037757335 0.006116655 0.0030737377 0.0005384304 0.008772205 -0.007830614 0.009712193 0.00081666716 -0.002337001 -0.004134967 -0.009102705 -0.0021953145 0.0026765526 0.006582477 0.00905606 -0.008740837 0.009048584 -0.008835369 0.0037481405 0.008029597 -0.0025019743
datasets -0.00784656 -0.008329601 0.0011506474 -0.0007532748 -0.009505982 0.0030849322 0.0022781647 0.0044903588 0.004423281 0.0032126273 -0.009830487 0.0057285707 0.0042710914 -0.0077287154 -0.0021052426 0.0003439002 -0.0006332677 -0.00096943084 -0.005536426 -1.3604787e-05 0.0044410042 -0.0006861222 0.0008152944 0.0020966588 -0.0039776415 -0.007860811 0.009122114 -0.009786927 -0.0024690912 -0.0012507758 -0.0076607186 0.0017868658 0.007953616 -0.0015518002 0.008115475 0.00032645857 -0.005778579 -0.0019890433 -0.00074713025 0.006244257 0.0071373717 0.0061693205 -0.0059867385 -0.0069746575 0.0061112014 0.0024413085 0.0053392504 0.0004490638 0.007873194 -0.008882143 0.009898204 -0.008255501 -0.001706957 0.0062770806 -0.009238253 0.004319596 -0.0069798883 -0.0068638474 0.0023116828 0.0017310234 -0.0027814638 0.007856971 -0.006994641 0.0004997322 0.008723735 0.002056332 -0.006852626 0.0035857745 -0.005072582 0.0006137652 0.0028545994 0.0075876974 0.0074104345 -0.004884239 0.0095432 -0.0055057574 0.007607647 -0.007947495 -0.007824256 -0.001100383 -0.0081701325 -0.0034696148 -0.000526514 2.374691e-05 -0.00995149 -0.006510503 -0.0073649134 -0.00035961828 0.005183225 -8.0120335e-05 0.010007507 -0.0039058782 0.00806126 0.0060720113 0.008283638 0.00010807552 -0.00042606998 0.0018963711 -0.009923509 0.009050238
complex -0.0023814205 0.0075342003 0.002053772 0.002893751 -0.0012483717 -0.009907484 0.0014044112 0.0029074065 -0.009795321 -0.0039240606 -0.0023470868 -0.005057849 0.0039484934 0.0021123888 0.0043374198 -0.0064793504 -0.0060057943 0.004713335 0.006778837 0.0055102245 0.0048019313 -0.007235654 0.008179487 -0.0069621177 -0.0076708924 0.008515409 -0.0024924322 -0.009385448 -0.0030794807 0.0059754374 -0.002892109 0.0049449177 0.00011685833 0.004041349 0.0011891663 -0.00931912 -0.0036547019 0.008824749 0.001529793 -0.005894416 0.007020396 0.007444904 0.007245183 1.6313974e-05 -0.009130085 -0.0035105373 0.0051369555 -0.0065135444 0.009744738 -0.009767034 -0.008110547 -0.005317652 0.00601137 -0.0076811914 0.008633559 -0.009867567 0.0034987433 0.0032914036 6.0906415e-05 0.009539928 0.0051097386 0.0002903551 0.00482781 0.006425306 0.0030005777 0.009427554 -0.0013427902 -0.008364075 -0.0045037474 -0.0014817413 -0.007275456 -0.0015584229 0.00795718 -0.0050270464 0.005110019 0.0043330803 -0.0007091468 0.0010850673 0.0057195066 -0.0066308943 0.0038800216 0.008914479 -0.003529635 -0.0075887446 -0.009197756 -0.009006487 0.0039014798 0.0051318365 0.0070293215 -0.0014515694 0.0009928988 0.003043394 -0.009873803 -0.009422457 0.0046035144 -0.008394504 -0.0031756004 -0.004298104 0.005901772 -0.0034433762
large 0.009992764 0.0005561648 -0.005151874 -0.0036403097 0.0012555938 -0.005380734 0.0073960098 0.009036236 0.004284774 -0.00736256 -0.0059443666 5.547501e-05 -0.0010178807 -0.0055090976 0.007948121 0.006237167 -0.0041868202 0.0023888336 0.0051258504 0.0024027007 0.0085788155 -0.0012994305 -0.0065188333 -0.000845507 -0.00832287 0.009830678 -0.008630304 -0.0015070752 -0.002844976 0.0031521206 0.0049675256 -0.008235245 -0.0043987865 0.0004761205 0.0040058102 0.0051306128 -0.0013934738 -0.00062320137 -0.007832186 0.0045404793 -0.0076538413 0.0032789013 -0.0034190454 -0.0077979728 0.006898785 -0.0004689561 -0.009544335 -0.00938198 0.00060264143 -0.008175009 0.0037458825 0.0034644867 0.00334803 -0.005602063 0.007986175 -0.008980243 0.0074646366 -0.0006313038 -0.0014629343 0.00396396 -0.0024808946 -0.004393466 -0.002418541 -0.006178754 -0.00036117187 -0.005370142 0.0045931535 -0.009524656 -0.004356064 -0.009154139 -0.0096218055 -0.00076015963 -0.008068213 -0.00568483 0.0027835222 -0.0014509767 0.003096865 0.008277377 -0.009634627 0.0060887514 -0.007957632 0.006536145 0.00744854 0.008599876 -0.007945074 0.003342672 -0.007835028 -0.0012425635 -0.0052126856 -0.008526069 0.004944757 0.0044296 -0.004059017 -0.007784816 0.0035665797 -0.003923896 -0.00887446 -0.004391529 -0.0021747346 0.008749547
refers -0.0064395466 0.0073274933 0.00612701 -0.004915186 -0.0017696393 -0.0025228949 0.003131831 -0.00042799488 -0.0027682786 -0.009071234 0.0064230897 -0.009607401 -0.008657585 0.0014031999 0.0029785975 9.440926e-06 0.00036300818 0.0025973867 0.0018032783 0.007544358 -0.0034325758 -0.0072366837 -0.007864991 0.007911263 0.0019479903 -0.005809355 0.006351847 0.008445322 0.007953272 -0.0068126423 -0.005138593 -0.0019945493 -0.006597598 0.0046918127 0.0056727785 -0.005975478 0.007183124 -0.0076615587 0.0061856457 -0.004638586 0.0019664248 -0.0032885089 0.0033894752 0.007721754 -0.0013743495 -0.005023954 -0.008555502 0.0036222886 0.0042387582 0.006702478 -0.004265291 -0.009740888 0.006815315 -0.004521234 0.004416126 0.008062389 -0.0039412132 0.0016185608 -0.003579303 -0.0066211307 -0.0056738765 -0.00013903735 -0.0075056865 -0.0019690143 -0.0025010922 0.0067424984 0.0013470367 0.0058760587 0.0037981793 -0.0034987435 -0.005107243 0.009657457 0.007099691 -0.009039127 0.005259027 0.008168476 0.009170097 -0.008035192 -0.0020165406 0.001101506 0.0028878658 -0.00162435 -0.0047310996 0.006499617 0.006937873 -0.0003909748 -0.0058054784 -0.004352176 -0.005155129 0.00426069 0.0005487498 -0.0023739361 -0.009087686 -0.001513836 0.006451316 0.0063320696 0.004216017 -0.002870499 0.009040001 0.00060102285
big 0.0011520389 0.0061857183 -0.0065952176 0.0065426975 0.009801527 0.0036665178 0.0034499674 0.004223451 -0.001948843 -0.008111489 0.0014702724 0.0009112792 -0.006788205 0.0019709307 0.0054603415 -0.007186685 0.0025194965 0.007763414 -0.008624204 0.003486192 -0.008546328 -0.007943754 0.007106625 -0.007572007 -0.0013733269 -0.007928118 -0.007901192 -0.007103535 0.00041858765 0.0018122979 -0.00789599 -0.008040974 -0.0031715487 -0.0018498054 -0.0061579603 -0.0042028287 0.0036014637 0.0030749668 0.0065814527 0.0042366255 -0.0008744447 0.0027427205 0.009059565 0.0019144394 0.0018377623 0.0010977238 -0.009288768 0.0053377263 0.00505299 2.6076912e-05 0.009227212 -0.005728544 0.0032412151 -0.0078214165 -0.008949192 0.002003603 0.004735594 0.006089564 -0.00868232 0.004349232 0.0024049175 0.0041562635 -0.00065890775 0.005572902 0.0072890646 -0.00836688 -0.009924368 0.007055188 -0.000987732 -0.009361351 -0.004086895 0.0011896456 0.008448347 -0.0016789957 -0.0010096355 -0.0073846322 -0.0076652123 0.0014888962 -0.00047612312 -0.0076899547 0.00086063315 -0.008993787 -0.0024922264 0.004242336 0.0011268391 0.007824136 0.006626318 -0.0011702575 0.004952763 0.0061283372 0.008759377 0.009063463 0.0049361237 0.0045982264 0.0072017554 -0.0015685466 -0.0056468537 0.008875925 0.0012136346 -0.0050550173
analysis -0.0008633147 -0.005215148 0.009119137 0.0033910866 0.004287786 0.006493487 0.008193265 -0.0047600777 -0.006351634 -0.0037504516 -0.0037187128 -0.009450987 -0.000607614 -0.008105001 0.009780193 -0.0034177776 -0.006310021 -0.008107 -0.0035703129 -0.009568324 0.0007938312 0.0054141716 -0.0028636237 0.0076629664 -0.0018801733 -0.007272922 -0.003143018 -0.0031430863 -0.0070885 -0.009675901 -0.004066564 -0.0015806259 0.005000865 -0.007630939 -0.004973328 0.0013782147 -0.0016731246 0.0035490815 -0.0018889608 0.004320301 0.007997281 -0.007921417 0.0037713286 0.0059881546 -0.0005649617 0.006754022 -0.0054103336 -0.004591484 -0.007845188 0.009478116 -0.009392089 -0.0032548278 -0.00044289543 -0.0048664464 0.009459583 -0.006836415 -0.00801485 0.0092426585 -0.008292008 0.009682582 -0.004092389 0.0056644604 -0.00039557426 -0.003991812 -0.0075085848 -0.0062552122 0.0068427734 0.006339557 0.00013761267 0.0063912407 0.003851128 0.0038389086 0.0026952773 -0.009705889 0.009262902 -0.008212488 -0.0030092946 0.0014360133 0.0052361176 -0.009192626 0.0016747394 0.0063607297 -0.008767787 0.009567664 -0.0052133095 0.009537867 -0.0064978087 0.0066028293 0.009364525 -0.009230716 0.0003056512 -0.0077329176 0.0081345 0.009571852 -0.006028621 0.00084497227 -0.0022329295 -0.0077554923 0.0008153951 -0.009910667
statistics 0.0026163673 -0.00768567 0.0056932857 0.007575189 -0.0025472494 -0.004036735 -0.009597895 0.0049523404 0.0029100035 0.008703293 0.0033103812 -0.0029049076 0.0035774708 0.008634512 0.009250457 0.0076362053 -0.008540308 -0.007578813 0.007251748 -0.0074511925 0.0032703755 0.008030152 -0.0031867388 0.0067680003 -0.0081647765 0.0064865625 0.0055774194 0.0033532633 -0.008111797 0.009170743 0.008220588 -0.0015563773 0.004103945 0.0063357065 -0.0017314408 0.005509452 -0.004027093 -0.0012997838 -0.001234373 -0.0041550286 -0.000697596 -0.0077061364 0.0036584411 0.009046291 0.004808302 0.0063727805 -0.0047324104 0.00483928 -0.006679926 -0.004966641 0.009890074 0.006400375 -0.0050166836 -0.0061002052 0.007224215 0.0027004082 0.0065933634 -0.0067426977 -0.00095774425 -0.0009541702 -0.00022167832 0.0022279066 -0.0067329 0.0043940507 -0.0027480465 0.008362852 -0.0010377526 0.0091842655 -0.00087265606 0.005206205 -0.007591141 -0.0091069015 -0.00031888223 -0.0022449233 0.009970413 0.0045064045 -0.0055805286 0.0073782327 0.00056323037 -0.009527673 0.005681916 -0.0020010525 -0.009429071 0.00873517 0.0072464137 0.008545668 0.0004066888 0.007704767 0.0051938235 -0.006941819 0.009293231 -0.003564471 -0.009739908 0.008555228 -0.005274679 0.008400369 -0.007845915 0.009266841 -0.0059221038 0.003993484
combines 0.009782406 0.0042261346 -0.002125433 -0.0049567665 -0.0097125815 0.0041817217 0.007451705 -0.0047009783 0.005913749 0.006805564 -0.009022063 0.0020761592 -0.006815043 -0.004315455 0.0008773529 -0.0070531066 -0.004128824 -0.007513952 -0.0070283366 -0.0069438634 0.009943182 0.008322466 -0.00018018068 -0.0026029863 0.0062350524 0.0013368814 -0.009007337 -0.007049273 0.0010420895 0.007932621 0.003192957 0.009851085 0.006541548 0.00025849507 0.008659947 0.009027983 0.008077228 0.009389831 -0.0094116265 0.0035265933 -0.007796108 -0.0071485364 -0.008408118 0.0032044437 1.0948613e-05 -0.0063527217 0.005540148 0.007883068 0.0043012192 0.007829115 -0.004256773 -0.006385765 0.0039582974 -0.0029535461 -0.007178344 0.0036680093 -0.0033162206 -0.0051946044 0.0026522183 0.006841309 0.006400682 0.00014875381 0.008663226 0.002956615 0.0065761977 -0.0008878701 0.0021076556 0.006195953 -0.009819632 0.0058302344 0.0012895901 0.0060812733 -0.0014235558 -0.0026758045 -0.005568535 -0.0028443604 -0.0025774874 -0.005126013 0.0009534357 0.008021988 0.005091231 -0.0076393085 -0.007420317 -0.0028751767 0.0039041738 -0.009327646 0.00617043 0.0031348288 -0.002808033 0.009185386 0.008078501 0.0007118671 0.0048339097 -0.0093089845 -0.00875733 -0.0029413935 0.009281128 0.0032272632 0.0056052 -0.0067648054
worldwide 0.0042487457 0.00039520708 -0.0009056556 -0.003238998 0.0049729175 -0.009112141 0.005123886 0.005678948 -0.0024303626 -0.0042189485 -0.0073856316 -0.0063748783 -0.0050990777 0.0031470186 -0.0047840173 -0.0012018168 -0.008916209 -0.0035177222 -0.0007862445 -0.007946295 0.003254336 0.009756891 0.0043948386 0.0018557956 -0.0048676957 -0.001134853 0.002230125 0.0017475364 0.008817734 -0.00092808384 0.0069906586 0.005781801 0.0030378432 0.0073131793 -0.004944146 -0.0039474634 0.0069745677 0.008605239 0.0031485409 -0.004095602 0.00764071 0.0027179457 -0.00022248794 0.008858176 0.004313511 0.0039447467 -9.667965e-06 -0.008931583 -0.0031167148 0.0024406707 -0.005598433 0.007118277 0.0074379537 -0.008956265 -0.0053831255 -0.005980268 -0.000652235 -0.0017883469 -0.00203919 -0.0022038694 0.0035634998 0.0096179275 -0.004583089 -0.008277333 0.0037408134 -0.006452969 0.006684559 0.002679526 -0.007874187 -0.007757171 -0.009244805 0.0023459278 0.0027521711 0.0026227534 0.00017577811 0.001028752 0.0030685635 -0.0015578123 -0.008042307 -0.00061613723 0.0036944742 -0.0025845647 -0.0021350048 -0.002235859 0.0072762077 -0.0030381586 0.009454833 -0.0038756498 -0.009961808 -0.0065485085 -0.0043638577 0.0012419851 0.0051283245 0.002126656 0.009055123 0.00090704823 0.005639263 0.00016276275 -0.0021173863 0.0062082238
industries 0.0020221237 0.008263349 -0.008289227 -0.008751368 -0.00053628825 -0.0019008575 -0.0023508808 -0.00058229594 -0.005072374 -0.008031853 0.008255949 -0.0033435628 -0.0028420389 -0.0016404871 -0.0012251212 -0.00919369 -0.0017985234 -0.0013524555 0.00864056 -0.007965832 -0.0047438904 -0.0018831013 0.0028907256 -0.006020046 -0.0055510197 -0.007963227 0.0055248616 -0.008706363 -0.0032405492 0.0002958947 0.0014400006 -0.009939632 0.008659792 -0.0020631994 0.00035725813 -0.00878755 -0.008160614 0.0037613679 0.004005121 0.0029956317 0.0058514043 -0.00693577 -0.0012391031 -0.0027202333 -0.0013935782 0.0044765724 0.0013669704 -0.0074465587 0.0032372668 0.006256082 -0.006096 0.0032303126 -0.0043207575 0.008820006 0.0041229 0.0020348644 -0.0010119586 -0.009098815 0.008666375 -0.0018144484 0.007375387 0.003775908 -0.008254999 -0.000607564 0.0027513693 -0.0025619795 0.009733582 -0.004972347 -0.0071753217 0.003799918 -0.0035745816 -0.0068878722 0.0020416852 0.0052699107 -0.005496878 -0.0043883426 -0.007177369 0.0015527463 -0.004759406 0.008445457 0.0007063058 0.0018629975 -0.0033470653 0.00739238 -0.0006649373 -0.008208683 -0.0073280637 0.00020880437 0.0077428455 0.0030900256 -0.005323195 -0.0067526675 -0.0098513095 0.0039193192 -0.0095073385 0.0031905759 0.0016712141 -0.00081863697 -0.009957466 0.0058847554
transforming -8.2240964e-05 -0.009934676 -0.007533829 0.008566268 0.0018936832 -0.00818881 -0.00081393897 0.005418693 -0.009320718 -0.0068904646 -0.0010227765 -0.009760705 0.0004797717 0.0019489782 0.008546828 0.00098787 0.0013008589 0.004879525 -0.0042916867 0.0072197625 0.00016830188 -0.0006789643 -0.00968592 0.0005070246 0.0067853536 0.00175745 -0.00809811 -0.0033271003 -0.0060316855 0.006027015 -0.00646884 0.005257057 -0.005255224 -0.006838991 -0.0075810025 0.0038231395 -0.008801569 -0.0057093455 -0.0070661516 -0.0043171067 -0.004025873 0.0014775392 0.0064844806 -0.0011965412 -0.0054746224 0.001549073 0.0056391293 -0.0052782996 -0.0053372276 0.0051731286 0.006271683 -0.0077730766 0.008207673 -0.009846607 -0.0074193464 -0.0058774576 0.0018157605 5.4800592e-05 0.0034698485 0.007009974 0.004792064 -0.003200871 -0.006426317 -0.008243996 -0.0004859333 0.0097413985 -0.0076748612 0.0036606807 0.0043752277 -0.004338098 -0.006967465 -0.0054472736 -0.005028135 -0.0069927154 0.0059361975 -0.00777602 -0.0029422299 0.0043874085 0.000175413 -0.007678779 -0.0046948045 0.0035937016 0.0025365623 -0.0019490612 -0.00072030484 0.0025483086 0.0014365852 -0.0026370846 0.0053424677 -0.0076607293 0.0063695395 -0.009995085 -0.002252773 0.0066767354 -0.0035884657 0.0065356093 0.0054339455 -0.007401566 -0.0002449638 -0.004495861
i -0.008060898 -0.0008932842 0.006380153 0.008725754 -0.0050445194 -0.002679254 -0.0060280925 0.0011809808 0.0026630005 -0.009859791 0.002410119 -0.008817392 0.00039762538 0.0047703553 -0.005246345 0.00024917955 -0.0021853943 -0.008688055 -0.0024163646 0.0044522323 -0.008566807 -0.0059360894 -0.0005318349 0.008031885 0.0014043946 0.009745068 -0.007671733 0.008998123 -0.0047277613 -0.0063567376 -0.007830363 0.0018462805 -0.0027484833 0.007535722 -0.0005150563 0.0025230737 0.005963904 -0.008655092 -0.0020726721 -0.004780636 -0.008671285 0.0034173077 0.0024174287 -0.0024047068 -0.0018941081 -0.006734836 -0.0032599883 0.0012986067 0.007749584 0.00707547 -0.0035893968 0.0036030717 -0.0025807149 -0.004727807 -0.0036236253 -0.006142202 0.0035115113 -0.0077835442 -0.007501962 -0.00450443 0.007404696 0.0018278022 0.005466614 0.008213089 -0.006243024 -0.004616181 0.0076708524 0.0049563334 0.004646004 0.009001842 0.00881173 -0.0026775345 0.0010669018 0.005490961 0.008900714 0.009839738 -0.008267325 -0.005118581 0.0049711727 0.0009627851 0.00014838259 0.0075096013 0.00638123 -0.0072161993 -0.002585698 -0.008492188 0.0070564295 0.00277324 -0.0022239897 0.0018825944 0.0076733506 0.008132668 0.006178344 0.0031510708 0.0015675371 0.008151124 0.0013237563 0.00043107732 -0.009549629 0.0025115616
